
        <?xml version="1.0"?>
        <MethodSetup Method="BDT::bdt">
        <GeneralInfo>
        <Info name="TMVA Release" value=""/>
        <Info name="ROOT Release" value=""/>
        <Info name="Creator" value="mlglue"/>
        <Info name="Date" value=""/>
        <Info name="Host" value=""/>
        <Info name="Dir" value=""/>
        <Info name="Training events" value="-1"/>
        <Info name="TrainingTime" value="-1"/>
        <Info name="AnalysisType" value="Classification"/>
        </GeneralInfo>
        <Options>
        <Option name="NTrees" modified="Yes">10</Option>
        <Option name="MaxDepth" modified="Yes">6</Option>
        <Option name="BoostType" modified="Yes">Grad</Option>
        <Option name="Shrinkage" modified="Yes">0.3</Option>
        <Option name="UseNvars" modified="Yes">9</Option>
        </Options>

        <Variables NVar="9">
        <Variable VarIndex="0" Expression="cl3d_coreshowerlength" Label="cl3d_coreshowerlength" Title="cl3d_coreshowerlength" Unit="" Internal="cl3d_coreshowerlength" Type="F" Min="0.0000000000000000000000000000000000000000000000000000000000000000E+00" Max="0.0000000000000000000000000000000000000000000000000000000000000000E+00"/>
<Variable VarIndex="1" Expression="cl3d_showerlength" Label="cl3d_showerlength" Title="cl3d_showerlength" Unit="" Internal="cl3d_showerlength" Type="F" Min="0.0000000000000000000000000000000000000000000000000000000000000000E+00" Max="0.0000000000000000000000000000000000000000000000000000000000000000E+00"/>
<Variable VarIndex="2" Expression="cl3d_firstlayer" Label="cl3d_firstlayer" Title="cl3d_firstlayer" Unit="" Internal="cl3d_firstlayer" Type="F" Min="0.0000000000000000000000000000000000000000000000000000000000000000E+00" Max="0.0000000000000000000000000000000000000000000000000000000000000000E+00"/>
<Variable VarIndex="3" Expression="cl3d_maxlayer" Label="cl3d_maxlayer" Title="cl3d_maxlayer" Unit="" Internal="cl3d_maxlayer" Type="F" Min="0.0000000000000000000000000000000000000000000000000000000000000000E+00" Max="0.0000000000000000000000000000000000000000000000000000000000000000E+00"/>
<Variable VarIndex="4" Expression="cl3d_szz" Label="cl3d_szz" Title="cl3d_szz" Unit="" Internal="cl3d_szz" Type="F" Min="0.0000000000000000000000000000000000000000000000000000000000000000E+00" Max="0.0000000000000000000000000000000000000000000000000000000000000000E+00"/>
<Variable VarIndex="5" Expression="cl3d_srrmean" Label="cl3d_srrmean" Title="cl3d_srrmean" Unit="" Internal="cl3d_srrmean" Type="F" Min="0.0000000000000000000000000000000000000000000000000000000000000000E+00" Max="0.0000000000000000000000000000000000000000000000000000000000000000E+00"/>
<Variable VarIndex="6" Expression="cl3d_srrtot" Label="cl3d_srrtot" Title="cl3d_srrtot" Unit="" Internal="cl3d_srrtot" Type="F" Min="0.0000000000000000000000000000000000000000000000000000000000000000E+00" Max="0.0000000000000000000000000000000000000000000000000000000000000000E+00"/>
<Variable VarIndex="7" Expression="cl3d_seetot" Label="cl3d_seetot" Title="cl3d_seetot" Unit="" Internal="cl3d_seetot" Type="F" Min="0.0000000000000000000000000000000000000000000000000000000000000000E+00" Max="0.0000000000000000000000000000000000000000000000000000000000000000E+00"/>
<Variable VarIndex="8" Expression="cl3d_spptot" Label="cl3d_spptot" Title="cl3d_spptot" Unit="" Internal="cl3d_spptot" Type="F" Min="0.0000000000000000000000000000000000000000000000000000000000000000E+00" Max="0.0000000000000000000000000000000000000000000000000000000000000000E+00"/>

        </Variables>

        <Classes NClass="2">
        <Class Name="background" Index="0"/>
<Class Name="signal" Index="1"/>

        </Classes>

        <Targets NTrgt="0">
        
        </Targets>

        <Transformations NTransformations="0"/>
        <MVAPdfs/>
        <Weights NTrees="10" AnalysisType="1">
        <BinaryTree type="DecisionTree" boostWeight="0.0" itree="0">
    <Node pos="c" depth="1" NCoef="0"     IVar="3" Cut="     1.600000E+01" cType="1"     res="     0.000000E+00" rms="0.0"     purity="0.00000000E+00" nType="0">
        <Node pos="l" depth="2" NCoef="0"     IVar="6" Cut="     5.377414E-03" cType="1"     res="     0.000000E+00" rms="0.0"     purity="0.00000000E+00" nType="0">
            <Node pos="l" depth="3" NCoef="0"     IVar="5" Cut="     3.781338E-03" cType="1"     res="     0.000000E+00" rms="0.0"     purity="0.00000000E+00" nType="0">
                <Node pos="l" depth="4" NCoef="0"     IVar="4" Cut="     1.427335E+01" cType="1"     res="     0.000000E+00" rms="0.0"     purity="0.00000000E+00" nType="0">
                    <Node pos="l" depth="5" NCoef="0"     IVar="2" Cut="     2.000000E+00" cType="1"     res="     0.000000E+00" rms="0.0"     purity="0.00000000E+00" nType="0">
                        <Node pos="l" depth="6" NCoef="0"     IVar="6" Cut="     4.723228E-03" cType="1"     res="     0.000000E+00" rms="0.0"     purity="0.00000000E+00" nType="0">
                            <Node pos="l" depth="7" NCoef="0"     IVar="-1" Cut="     0.000000E+00" cType="1"     res="     5.688564E-01" rms="0.0e-00"     purity="0.00000000E+00" nType="-99">
                            </Node>
                            <Node pos="r" depth="7" NCoef="0"     IVar="-1" Cut="     0.000000E+00" cType="1"     res="     4.766605E-01" rms="0.0e-00"     purity="0.00000000E+00" nType="-99">
                            </Node>
                        </Node>
                        <Node pos="r" depth="6" NCoef="0"     IVar="6" Cut="     4.431597E-03" cType="1"     res="     0.000000E+00" rms="0.0"     purity="0.00000000E+00" nType="0">
                            <Node pos="l" depth="7" NCoef="0"     IVar="-1" Cut="     0.000000E+00" cType="1"     res="     4.867103E-01" rms="0.0e-00"     purity="0.00000000E+00" nType="-99">
                            </Node>
                            <Node pos="r" depth="7" NCoef="0"     IVar="-1" Cut="     0.000000E+00" cType="1"     res="     2.755467E-01" rms="0.0e-00"     purity="0.00000000E+00" nType="-99">
                            </Node>
                        </Node>
                    </Node>
                    <Node pos="r" depth="5" NCoef="0"     IVar="4" Cut="     2.076416E+01" cType="1"     res="     0.000000E+00" rms="0.0"     purity="0.00000000E+00" nType="0">
                        <Node pos="l" depth="6" NCoef="0"     IVar="1" Cut="     3.950000E+01" cType="1"     res="     0.000000E+00" rms="0.0"     purity="0.00000000E+00" nType="0">
                            <Node pos="l" depth="7" NCoef="0"     IVar="-1" Cut="     0.000000E+00" cType="1"     res="    -8.070175E-02" rms="0.0e-00"     purity="0.00000000E+00" nType="-99">
                            </Node>
                            <Node pos="r" depth="7" NCoef="0"     IVar="-1" Cut="     0.000000E+00" cType="1"     res="     3.932817E-01" rms="0.0e-00"     purity="0.00000000E+00" nType="-99">
                            </Node>
                        </Node>
                        <Node pos="r" depth="6" NCoef="0"     IVar="1" Cut="     4.550000E+01" cType="1"     res="     0.000000E+00" rms="0.0"     purity="0.00000000E+00" nType="0">
                            <Node pos="l" depth="7" NCoef="0"     IVar="-1" Cut="     0.000000E+00" cType="1"     res="    -2.724324E-01" rms="0.0e-00"     purity="0.00000000E+00" nType="-99">
                            </Node>
                            <Node pos="r" depth="7" NCoef="0"     IVar="-1" Cut="     0.000000E+00" cType="1"     res="     5.915493E-02" rms="0.0e-00"     purity="0.00000000E+00" nType="-99">
                            </Node>
                        </Node>
                    </Node>
                </Node>
                <Node pos="r" depth="4" NCoef="0"     IVar="4" Cut="     1.108040E+01" cType="1"     res="     0.000000E+00" rms="0.0"     purity="0.00000000E+00" nType="0">
                    <Node pos="l" depth="5" NCoef="0"     IVar="5" Cut="     3.937787E-03" cType="1"     res="     0.000000E+00" rms="0.0"     purity="0.00000000E+00" nType="0">
                        <Node pos="l" depth="6" NCoef="0"     IVar="7" Cut="     2.000443E-02" cType="1"     res="     0.000000E+00" rms="0.0"     purity="0.00000000E+00" nType="0">
                            <Node pos="l" depth="7" NCoef="0"     IVar="-1" Cut="     0.000000E+00" cType="1"     res="     6.274510E-02" rms="0.0e-00"     purity="0.00000000E+00" nType="-99">
                            </Node>
                            <Node pos="r" depth="7" NCoef="0"     IVar="-1" Cut="     0.000000E+00" cType="1"     res="     3.903044E-01" rms="0.0e-00"     purity="0.00000000E+00" nType="-99">
                            </Node>
                        </Node>
                        <Node pos="r" depth="6" NCoef="0"     IVar="7" Cut="     2.127795E-02" cType="1"     res="     0.000000E+00" rms="0.0"     purity="0.00000000E+00" nType="0">
                            <Node pos="l" depth="7" NCoef="0"     IVar="-1" Cut="     0.000000E+00" cType="1"     res="    -2.927336E-01" rms="0.0e-00"     purity="0.00000000E+00" nType="-99">
                            </Node>
                            <Node pos="r" depth="7" NCoef="0"     IVar="-1" Cut="     0.000000E+00" cType="1"     res="     5.499316E-02" rms="0.0e-00"     purity="0.00000000E+00" nType="-99">
                            </Node>
                        </Node>
                    </Node>
                    <Node pos="r" depth="5" NCoef="0"     IVar="5" Cut="     3.996367E-03" cType="1"     res="     0.000000E+00" rms="0.0"     purity="0.00000000E+00" nType="0">
                        <Node pos="l" depth="6" NCoef="0"     IVar="1" Cut="     4.250000E+01" cType="1"     res="     0.000000E+00" rms="0.0"     purity="0.00000000E+00" nType="0">
                            <Node pos="l" depth="7" NCoef="0"     IVar="-1" Cut="     0.000000E+00" cType="1"     res="    -3.129412E-01" rms="0.0e-00"     purity="0.00000000E+00" nType="-99">
                            </Node>
                            <Node pos="r" depth="7" NCoef="0"     IVar="-1" Cut="     0.000000E+00" cType="1"     res="     4.972376E-02" rms="0.0e-00"     purity="0.00000000E+00" nType="-99">
                            </Node>
                        </Node>
                        <Node pos="r" depth="6" NCoef="0"     IVar="6" Cut="     4.866610E-03" cType="1"     res="     0.000000E+00" rms="0.0"     purity="0.00000000E+00" nType="0">
                            <Node pos="l" depth="7" NCoef="0"     IVar="-1" Cut="     0.000000E+00" cType="1"     res="    -2.444444E-01" rms="0.0e-00"     purity="0.00000000E+00" nType="-99">
                            </Node>
                            <Node pos="r" depth="7" NCoef="0"     IVar="-1" Cut="     0.000000E+00" cType="1"     res="    -5.195335E-01" rms="0.0e-00"     purity="0.00000000E+00" nType="-99">
                            </Node>
                        </Node>
                    </Node>
                </Node>
            </Node>
            <Node pos="r" depth="3" NCoef="0"     IVar="5" Cut="     3.637439E-03" cType="1"     res="     0.000000E+00" rms="0.0"     purity="0.00000000E+00" nType="0">
                <Node pos="l" depth="4" NCoef="0"     IVar="4" Cut="     1.536512E+01" cType="1"     res="     0.000000E+00" rms="0.0"     purity="0.00000000E+00" nType="0">
                    <Node pos="l" depth="5" NCoef="0"     IVar="4" Cut="     1.142373E+01" cType="1"     res="     0.000000E+00" rms="0.0"     purity="0.00000000E+00" nType="0">
                        <Node pos="l" depth="6" NCoef="0"     IVar="8" Cut="     2.607755E-02" cType="1"     res="     0.000000E+00" rms="0.0"     purity="0.00000000E+00" nType="0">
                            <Node pos="l" depth="7" NCoef="0"     IVar="-1" Cut="     0.000000E+00" cType="1"     res="     4.028936E-01" rms="0.0e-00"     purity="0.00000000E+00" nType="-99">
                            </Node>
                            <Node pos="r" depth="7" NCoef="0"     IVar="-1" Cut="     0.000000E+00" cType="1"     res="     1.037288E-01" rms="0.0e-00"     purity="0.00000000E+00" nType="-99">
                            </Node>
                        </Node>
                        <Node pos="r" depth="6" NCoef="0"     IVar="1" Cut="     4.150000E+01" cType="1"     res="     0.000000E+00" rms="0.0"     purity="0.00000000E+00" nType="0">
                            <Node pos="l" depth="7" NCoef="0"     IVar="-1" Cut="     0.000000E+00" cType="1"     res="     3.757829E-03" rms="0.0e-00"     purity="0.00000000E+00" nType="-99">
                            </Node>
                            <Node pos="r" depth="7" NCoef="0"     IVar="-1" Cut="     0.000000E+00" cType="1"     res="     4.251256E-01" rms="0.0e-00"     purity="0.00000000E+00" nType="-99">
                            </Node>
                        </Node>
                    </Node>
                    <Node pos="r" depth="5" NCoef="0"     IVar="4" Cut="     2.080730E+01" cType="1"     res="     0.000000E+00" rms="0.0"     purity="0.00000000E+00" nType="0">
                        <Node pos="l" depth="6" NCoef="0"     IVar="0" Cut="     1.650000E+01" cType="1"     res="     0.000000E+00" rms="0.0"     purity="0.00000000E+00" nType="0">
                            <Node pos="l" depth="7" NCoef="0"     IVar="-1" Cut="     0.000000E+00" cType="1"     res="    -3.626374E-02" rms="0.0e-00"     purity="0.00000000E+00" nType="-99">
                            </Node>
                            <Node pos="r" depth="7" NCoef="0"     IVar="-1" Cut="     0.000000E+00" cType="1"     res="    -4.918310E-01" rms="0.0e-00"     purity="0.00000000E+00" nType="-99">
                            </Node>
                        </Node>
                        <Node pos="r" depth="6" NCoef="0"     IVar="7" Cut="     1.319991E-02" cType="1"     res="     0.000000E+00" rms="0.0"     purity="0.00000000E+00" nType="0">
                            <Node pos="l" depth="7" NCoef="0"     IVar="-1" Cut="     0.000000E+00" cType="1"     res="     2.666667E-01" rms="0.0e-00"     purity="0.00000000E+00" nType="-99">
                            </Node>
                            <Node pos="r" depth="7" NCoef="0"     IVar="-1" Cut="     0.000000E+00" cType="1"     res="    -4.699793E-01" rms="0.0e-00"     purity="0.00000000E+00" nType="-99">
                            </Node>
                        </Node>
                    </Node>
                </Node>
                <Node pos="r" depth="4" NCoef="0"     IVar="6" Cut="     6.160989E-03" cType="1"     res="     0.000000E+00" rms="0.0"     purity="0.00000000E+00" nType="0">
                    <Node pos="l" depth="5" NCoef="0"     IVar="5" Cut="     3.893125E-03" cType="1"     res="     0.000000E+00" rms="0.0"     purity="0.00000000E+00" nType="0">
                        <Node pos="l" depth="6" NCoef="0"     IVar="4" Cut="     1.374531E+01" cType="1"     res="     0.000000E+00" rms="0.0"     purity="0.00000000E+00" nType="0">
                            <Node pos="l" depth="7" NCoef="0"     IVar="-1" Cut="     0.000000E+00" cType="1"     res="     6.132265E-02" rms="0.0e-00"     purity="0.00000000E+00" nType="-99">
                            </Node>
                            <Node pos="r" depth="7" NCoef="0"     IVar="-1" Cut="     0.000000E+00" cType="1"     res="    -3.891892E-01" rms="0.0e-00"     purity="0.00000000E+00" nType="-99">
                            </Node>
                        </Node>
                        <Node pos="r" depth="6" NCoef="0"     IVar="4" Cut="     1.261790E+01" cType="1"     res="     0.000000E+00" rms="0.0"     purity="0.00000000E+00" nType="0">
                            <Node pos="l" depth="7" NCoef="0"     IVar="-1" Cut="     0.000000E+00" cType="1"     res="    -3.982487E-01" rms="0.0e-00"     purity="0.00000000E+00" nType="-99">
                            </Node>
                            <Node pos="r" depth="7" NCoef="0"     IVar="-1" Cut="     0.000000E+00" cType="1"     res="    -5.600740E-01" rms="0.0e-00"     purity="0.00000000E+00" nType="-99">
                            </Node>
                        </Node>
                    </Node>
                    <Node pos="r" depth="5" NCoef="0"     IVar="5" Cut="     3.919491E-03" cType="1"     res="     0.000000E+00" rms="0.0"     purity="0.00000000E+00" nType="0">
                        <Node pos="l" depth="6" NCoef="0"     IVar="4" Cut="     1.079442E+01" cType="1"     res="     0.000000E+00" rms="0.0"     purity="0.00000000E+00" nType="0">
                            <Node pos="l" depth="7" NCoef="0"     IVar="-1" Cut="     0.000000E+00" cType="1"     res="    -2.051948E-01" rms="0.0e-00"     purity="0.00000000E+00" nType="-99">
                            </Node>
                            <Node pos="r" depth="7" NCoef="0"     IVar="-1" Cut="     0.000000E+00" cType="1"     res="    -5.341624E-01" rms="0.0e-00"     purity="0.00000000E+00" nType="-99">
                            </Node>
                        </Node>
                        <Node pos="r" depth="6" NCoef="0"     IVar="7" Cut="     1.270564E-02" cType="1"     res="     0.000000E+00" rms="0.0"     purity="0.00000000E+00" nType="0">
                            <Node pos="l" depth="7" NCoef="0"     IVar="-1" Cut="     0.000000E+00" cType="1"     res="    -1.500000E-01" rms="0.0e-00"     purity="0.00000000E+00" nType="-99">
                            </Node>
                            <Node pos="r" depth="7" NCoef="0"     IVar="-1" Cut="     0.000000E+00" cType="1"     res="    -5.881061E-01" rms="0.0e-00"     purity="0.00000000E+00" nType="-99">
                            </Node>
                        </Node>
                    </Node>
                </Node>
            </Node>
        </Node>
        <Node pos="r" depth="2" NCoef="0"     IVar="3" Cut="     2.000000E+01" cType="1"     res="     0.000000E+00" rms="0.0"     purity="0.00000000E+00" nType="0">
            <Node pos="l" depth="3" NCoef="0"     IVar="4" Cut="     9.262961E+00" cType="1"     res="     0.000000E+00" rms="0.0"     purity="0.00000000E+00" nType="0">
                <Node pos="l" depth="4" NCoef="0"     IVar="0" Cut="     1.350000E+01" cType="1"     res="     0.000000E+00" rms="0.0"     purity="0.00000000E+00" nType="0">
                    <Node pos="l" depth="5" NCoef="0"     IVar="6" Cut="     4.246386E-03" cType="1"     res="     0.000000E+00" rms="0.0"     purity="0.00000000E+00" nType="0">
                        <Node pos="l" depth="6" NCoef="0"     IVar="0" Cut="     6.000000E+00" cType="1"     res="     0.000000E+00" rms="0.0"     purity="0.00000000E+00" nType="0">
                            <Node pos="l" depth="7" NCoef="0"     IVar="-1" Cut="     0.000000E+00" cType="1"     res="    -3.600000E-01" rms="0.0e-00"     purity="0.00000000E+00" nType="-99">
                            </Node>
                            <Node pos="r" depth="7" NCoef="0"     IVar="-1" Cut="     0.000000E+00" cType="1"     res="     3.600000E-01" rms="0.0e-00"     purity="0.00000000E+00" nType="-99">
                            </Node>
                        </Node>
                        <Node pos="r" depth="6" NCoef="0"     IVar="-1" Cut="     0.000000E+00" cType="1"     res="    -4.875000E-01" rms="0.0e-00"     purity="0.00000000E+00" nType="-99">
                        </Node>
                    </Node>
                    <Node pos="r" depth="5" NCoef="0"     IVar="7" Cut="     2.981381E-02" cType="1"     res="     0.000000E+00" rms="0.0"     purity="0.00000000E+00" nType="0">
                        <Node pos="l" depth="6" NCoef="0"     IVar="6" Cut="     4.853591E-03" cType="1"     res="     0.000000E+00" rms="0.0"     purity="0.00000000E+00" nType="0">
                            <Node pos="l" depth="7" NCoef="0"     IVar="-1" Cut="     0.000000E+00" cType="1"     res="     5.760000E-01" rms="0.0e-00"     purity="0.00000000E+00" nType="-99">
                            </Node>
                            <Node pos="r" depth="7" NCoef="0"     IVar="-1" Cut="     0.000000E+00" cType="1"     res="     2.666667E-01" rms="0.0e-00"     purity="0.00000000E+00" nType="-99">
                            </Node>
                        </Node>
                        <Node pos="r" depth="6" NCoef="0"     IVar="3" Cut="     1.800000E+01" cType="1"     res="     0.000000E+00" rms="0.0"     purity="0.00000000E+00" nType="0">
                            <Node pos="l" depth="7" NCoef="0"     IVar="-1" Cut="     0.000000E+00" cType="1"     res="     5.454546E-02" rms="0.0e-00"     purity="0.00000000E+00" nType="-99">
                            </Node>
                            <Node pos="r" depth="7" NCoef="0"     IVar="-1" Cut="     0.000000E+00" cType="1"     res="    -1.500000E-01" rms="0.0e-00"     purity="0.00000000E+00" nType="-99">
                            </Node>
                        </Node>
                    </Node>
                </Node>
                <Node pos="r" depth="4" NCoef="0"     IVar="6" Cut="     4.640209E-03" cType="1"     res="     0.000000E+00" rms="0.0"     purity="0.00000000E+00" nType="0">
                    <Node pos="l" depth="5" NCoef="0"     IVar="0" Cut="     1.450000E+01" cType="1"     res="     0.000000E+00" rms="0.0"     purity="0.00000000E+00" nType="0">
                        <Node pos="l" depth="6" NCoef="0"     IVar="-1" Cut="     0.000000E+00" cType="1"     res="    -4.736843E-01" rms="0.0e-00"     purity="0.00000000E+00" nType="-99">
                        </Node>
                        <Node pos="r" depth="6" NCoef="0"     IVar="1" Cut="     3.650000E+01" cType="1"     res="     0.000000E+00" rms="0.0"     purity="0.00000000E+00" nType="0">
                            <Node pos="l" depth="7" NCoef="0"     IVar="-1" Cut="     0.000000E+00" cType="1"     res="    -1.500000E-01" rms="0.0e-00"     purity="0.00000000E+00" nType="-99">
                            </Node>
                            <Node pos="r" depth="7" NCoef="0"     IVar="-1" Cut="     0.000000E+00" cType="1"     res="     4.588236E-01" rms="0.0e-00"     purity="0.00000000E+00" nType="-99">
                            </Node>
                        </Node>
                    </Node>
                    <Node pos="r" depth="5" NCoef="0"     IVar="4" Cut="     1.075026E+01" cType="1"     res="     0.000000E+00" rms="0.0"     purity="0.00000000E+00" nType="0">
                        <Node pos="l" depth="6" NCoef="0"     IVar="1" Cut="     3.700000E+01" cType="1"     res="     0.000000E+00" rms="0.0"     purity="0.00000000E+00" nType="0">
                            <Node pos="l" depth="7" NCoef="0"     IVar="-1" Cut="     0.000000E+00" cType="1"     res="    -4.105263E-01" rms="0.0e-00"     purity="0.00000000E+00" nType="-99">
                            </Node>
                            <Node pos="r" depth="7" NCoef="0"     IVar="-1" Cut="     0.000000E+00" cType="1"     res="    -0.000000E+00" rms="0.0e-00"     purity="0.00000000E+00" nType="-99">
                            </Node>
                        </Node>
                        <Node pos="r" depth="6" NCoef="0"     IVar="6" Cut="     5.195515E-03" cType="1"     res="     0.000000E+00" rms="0.0"     purity="0.00000000E+00" nType="0">
                            <Node pos="l" depth="7" NCoef="0"     IVar="-1" Cut="     0.000000E+00" cType="1"     res="    -4.153847E-01" rms="0.0e-00"     purity="0.00000000E+00" nType="-99">
                            </Node>
                            <Node pos="r" depth="7" NCoef="0"     IVar="-1" Cut="     0.000000E+00" cType="1"     res="    -5.897290E-01" rms="0.0e-00"     purity="0.00000000E+00" nType="-99">
                            </Node>
                        </Node>
                    </Node>
                </Node>
            </Node>
            <Node pos="r" depth="3" NCoef="0"     IVar="2" Cut="     3.700000E+01" cType="1"     res="     0.000000E+00" rms="0.0"     purity="0.00000000E+00" nType="0">
                <Node pos="l" depth="4" NCoef="0"     IVar="-1" Cut="     0.000000E+00" cType="1"     res="    -5.977048E-01" rms="0.0e-00"     purity="0.00000000E+00" nType="-99">
                </Node>
                <Node pos="r" depth="4" NCoef="0"     IVar="4" Cut="     6.718442E+00" cType="1"     res="     0.000000E+00" rms="0.0"     purity="0.00000000E+00" nType="0">
                    <Node pos="l" depth="5" NCoef="0"     IVar="-1" Cut="     0.000000E+00" cType="1"     res="     4.285715E-01" rms="0.0e-00"     purity="0.00000000E+00" nType="-99">
                    </Node>
                    <Node pos="r" depth="5" NCoef="0"     IVar="1" Cut="     7.500000E+00" cType="1"     res="     0.000000E+00" rms="0.0"     purity="0.00000000E+00" nType="0">
                        <Node pos="l" depth="6" NCoef="0"     IVar="-1" Cut="     0.000000E+00" cType="1"     res="    -2.000000E-01" rms="0.0e-00"     purity="0.00000000E+00" nType="-99">
                        </Node>
                        <Node pos="r" depth="6" NCoef="0"     IVar="-1" Cut="     0.000000E+00" cType="1"     res="    -5.478261E-01" rms="0.0e-00"     purity="0.00000000E+00" nType="-99">
                        </Node>
                    </Node>
                </Node>
            </Node>
        </Node>
    </Node>
</BinaryTree>
<BinaryTree type="DecisionTree" boostWeight="0.0" itree="1">
    <Node pos="c" depth="1" NCoef="0"     IVar="3" Cut="     1.400000E+01" cType="1"     res="     0.000000E+00" rms="0.0"     purity="0.00000000E+00" nType="0">
        <Node pos="l" depth="2" NCoef="0"     IVar="6" Cut="     5.254892E-03" cType="1"     res="     0.000000E+00" rms="0.0"     purity="0.00000000E+00" nType="0">
            <Node pos="l" depth="3" NCoef="0"     IVar="5" Cut="     3.786714E-03" cType="1"     res="     0.000000E+00" rms="0.0"     purity="0.00000000E+00" nType="0">
                <Node pos="l" depth="4" NCoef="0"     IVar="4" Cut="     1.339613E+01" cType="1"     res="     0.000000E+00" rms="0.0"     purity="0.00000000E+00" nType="0">
                    <Node pos="l" depth="5" NCoef="0"     IVar="0" Cut="     1.350000E+01" cType="1"     res="     0.000000E+00" rms="0.0"     purity="0.00000000E+00" nType="0">
                        <Node pos="l" depth="6" NCoef="0"     IVar="5" Cut="     3.566353E-03" cType="1"     res="     0.000000E+00" rms="0.0"     purity="0.00000000E+00" nType="0">
                            <Node pos="l" depth="7" NCoef="0"     IVar="-1" Cut="     0.000000E+00" cType="1"     res="     3.965223E-01" rms="0.0e-00"     purity="0.00000000E+00" nType="-99">
                            </Node>
                            <Node pos="r" depth="7" NCoef="0"     IVar="-1" Cut="     0.000000E+00" cType="1"     res="     2.317648E-01" rms="0.0e-00"     purity="0.00000000E+00" nType="-99">
                            </Node>
                        </Node>
                        <Node pos="r" depth="6" NCoef="0"     IVar="6" Cut="     4.665867E-03" cType="1"     res="     0.000000E+00" rms="0.0"     purity="0.00000000E+00" nType="0">
                            <Node pos="l" depth="7" NCoef="0"     IVar="-1" Cut="     0.000000E+00" cType="1"     res="     4.503466E-01" rms="0.0e-00"     purity="0.00000000E+00" nType="-99">
                            </Node>
                            <Node pos="r" depth="7" NCoef="0"     IVar="-1" Cut="     0.000000E+00" cType="1"     res="     3.960488E-01" rms="0.0e-00"     purity="0.00000000E+00" nType="-99">
                            </Node>
                        </Node>
                    </Node>
                    <Node pos="r" depth="5" NCoef="0"     IVar="4" Cut="     2.499476E+01" cType="1"     res="     0.000000E+00" rms="0.0"     purity="0.00000000E+00" nType="0">
                        <Node pos="l" depth="6" NCoef="0"     IVar="0" Cut="     1.750000E+01" cType="1"     res="     0.000000E+00" rms="0.0"     purity="0.00000000E+00" nType="0">
                            <Node pos="l" depth="7" NCoef="0"     IVar="-1" Cut="     0.000000E+00" cType="1"     res="     2.509059E-01" rms="0.0e-00"     purity="0.00000000E+00" nType="-99">
                            </Node>
                            <Node pos="r" depth="7" NCoef="0"     IVar="-1" Cut="     0.000000E+00" cType="1"     res="    -3.064516E-01" rms="0.0e-00"     purity="0.00000000E+00" nType="-99">
                            </Node>
                        </Node>
                        <Node pos="r" depth="6" NCoef="0"     IVar="6" Cut="     4.212205E-03" cType="1"     res="     0.000000E+00" rms="0.0"     purity="0.00000000E+00" nType="0">
                            <Node pos="l" depth="7" NCoef="0"     IVar="-1" Cut="     0.000000E+00" cType="1"     res="     1.301050E-01" rms="0.0e-00"     purity="0.00000000E+00" nType="-99">
                            </Node>
                            <Node pos="r" depth="7" NCoef="0"     IVar="-1" Cut="     0.000000E+00" cType="1"     res="    -2.458653E-01" rms="0.0e-00"     purity="0.00000000E+00" nType="-99">
                            </Node>
                        </Node>
                    </Node>
                </Node>
                <Node pos="r" depth="4" NCoef="0"     IVar="4" Cut="     9.472955E+00" cType="1"     res="     0.000000E+00" rms="0.0"     purity="0.00000000E+00" nType="0">
                    <Node pos="l" depth="5" NCoef="0"     IVar="5" Cut="     4.078259E-03" cType="1"     res="     0.000000E+00" rms="0.0"     purity="0.00000000E+00" nType="0">
                        <Node pos="l" depth="6" NCoef="0"     IVar="0" Cut="     1.250000E+01" cType="1"     res="     0.000000E+00" rms="0.0"     purity="0.00000000E+00" nType="0">
                            <Node pos="l" depth="7" NCoef="0"     IVar="-1" Cut="     0.000000E+00" cType="1"     res="    -3.155233E-02" rms="0.0e-00"     purity="0.00000000E+00" nType="-99">
                            </Node>
                            <Node pos="r" depth="7" NCoef="0"     IVar="-1" Cut="     0.000000E+00" cType="1"     res="     2.943436E-01" rms="0.0e-00"     purity="0.00000000E+00" nType="-99">
                            </Node>
                        </Node>
                        <Node pos="r" depth="6" NCoef="0"     IVar="6" Cut="     4.680082E-03" cType="1"     res="     0.000000E+00" rms="0.0"     purity="0.00000000E+00" nType="0">
                            <Node pos="l" depth="7" NCoef="0"     IVar="-1" Cut="     0.000000E+00" cType="1"     res="     2.133926E-01" rms="0.0e-00"     purity="0.00000000E+00" nType="-99">
                            </Node>
                            <Node pos="r" depth="7" NCoef="0"     IVar="-1" Cut="     0.000000E+00" cType="1"     res="    -1.463846E-01" rms="0.0e-00"     purity="0.00000000E+00" nType="-99">
                            </Node>
                        </Node>
                    </Node>
                    <Node pos="r" depth="5" NCoef="0"     IVar="1" Cut="     3.850000E+01" cType="1"     res="     0.000000E+00" rms="0.0"     purity="0.00000000E+00" nType="0">
                        <Node pos="l" depth="6" NCoef="0"     IVar="8" Cut="     2.906469E-02" cType="1"     res="     0.000000E+00" rms="0.0"     purity="0.00000000E+00" nType="0">
                            <Node pos="l" depth="7" NCoef="0"     IVar="-1" Cut="     0.000000E+00" cType="1"     res="    -1.829702E-01" rms="0.0e-00"     purity="0.00000000E+00" nType="-99">
                            </Node>
                            <Node pos="r" depth="7" NCoef="0"     IVar="-1" Cut="     0.000000E+00" cType="1"     res="    -4.773182E-01" rms="0.0e-00"     purity="0.00000000E+00" nType="-99">
                            </Node>
                        </Node>
                        <Node pos="r" depth="6" NCoef="0"     IVar="4" Cut="     1.249460E+01" cType="1"     res="     0.000000E+00" rms="0.0"     purity="0.00000000E+00" nType="0">
                            <Node pos="l" depth="7" NCoef="0"     IVar="-1" Cut="     0.000000E+00" cType="1"     res="     2.832800E-01" rms="0.0e-00"     purity="0.00000000E+00" nType="-99">
                            </Node>
                            <Node pos="r" depth="7" NCoef="0"     IVar="-1" Cut="     0.000000E+00" cType="1"     res="    -1.959239E-01" rms="0.0e-00"     purity="0.00000000E+00" nType="-99">
                            </Node>
                        </Node>
                    </Node>
                </Node>
            </Node>
            <Node pos="r" depth="3" NCoef="0"     IVar="5" Cut="     3.610333E-03" cType="1"     res="     0.000000E+00" rms="0.0"     purity="0.00000000E+00" nType="0">
                <Node pos="l" depth="4" NCoef="0"     IVar="4" Cut="     1.712186E+01" cType="1"     res="     0.000000E+00" rms="0.0"     purity="0.00000000E+00" nType="0">
                    <Node pos="l" depth="5" NCoef="0"     IVar="4" Cut="     1.142373E+01" cType="1"     res="     0.000000E+00" rms="0.0"     purity="0.00000000E+00" nType="0">
                        <Node pos="l" depth="6" NCoef="0"     IVar="2" Cut="     2.000000E+00" cType="1"     res="     0.000000E+00" rms="0.0"     purity="0.00000000E+00" nType="0">
                            <Node pos="l" depth="7" NCoef="0"     IVar="-1" Cut="     0.000000E+00" cType="1"     res="     3.248252E-01" rms="0.0e-00"     purity="0.00000000E+00" nType="-99">
                            </Node>
                            <Node pos="r" depth="7" NCoef="0"     IVar="-1" Cut="     0.000000E+00" cType="1"     res="     7.417620E-02" rms="0.0e-00"     purity="0.00000000E+00" nType="-99">
                            </Node>
                        </Node>
                        <Node pos="r" depth="6" NCoef="0"     IVar="0" Cut="     1.650000E+01" cType="1"     res="     0.000000E+00" rms="0.0"     purity="0.00000000E+00" nType="0">
                            <Node pos="l" depth="7" NCoef="0"     IVar="-1" Cut="     0.000000E+00" cType="1"     res="     1.309029E-01" rms="0.0e-00"     purity="0.00000000E+00" nType="-99">
                            </Node>
                            <Node pos="r" depth="7" NCoef="0"     IVar="-1" Cut="     0.000000E+00" cType="1"     res="    -2.604404E-01" rms="0.0e-00"     purity="0.00000000E+00" nType="-99">
                            </Node>
                        </Node>
                    </Node>
                    <Node pos="r" depth="5" NCoef="0"     IVar="6" Cut="     6.179173E-03" cType="1"     res="     0.000000E+00" rms="0.0"     purity="0.00000000E+00" nType="0">
                        <Node pos="l" depth="6" NCoef="0"     IVar="0" Cut="     1.850000E+01" cType="1"     res="     0.000000E+00" rms="0.0"     purity="0.00000000E+00" nType="0">
                            <Node pos="l" depth="7" NCoef="0"     IVar="-1" Cut="     0.000000E+00" cType="1"     res="     3.816008E-02" rms="0.0e-00"     purity="0.00000000E+00" nType="-99">
                            </Node>
                            <Node pos="r" depth="7" NCoef="0"     IVar="-1" Cut="     0.000000E+00" cType="1"     res="    -4.556057E-01" rms="0.0e-00"     purity="0.00000000E+00" nType="-99">
                            </Node>
                        </Node>
                        <Node pos="r" depth="6" NCoef="0"     IVar="0" Cut="     1.550000E+01" cType="1"     res="     0.000000E+00" rms="0.0"     purity="0.00000000E+00" nType="0">
                            <Node pos="l" depth="7" NCoef="0"     IVar="-1" Cut="     0.000000E+00" cType="1"     res="    -2.884806E-01" rms="0.0e-00"     purity="0.00000000E+00" nType="-99">
                            </Node>
                            <Node pos="r" depth="7" NCoef="0"     IVar="-1" Cut="     0.000000E+00" cType="1"     res="    -4.385673E-01" rms="0.0e-00"     purity="0.00000000E+00" nType="-99">
                            </Node>
                        </Node>
                    </Node>
                </Node>
                <Node pos="r" depth="4" NCoef="0"     IVar="5" Cut="     3.917297E-03" cType="1"     res="     0.000000E+00" rms="0.0"     purity="0.00000000E+00" nType="0">
                    <Node pos="l" depth="5" NCoef="0"     IVar="4" Cut="     1.318361E+01" cType="1"     res="     0.000000E+00" rms="0.0"     purity="0.00000000E+00" nType="0">
                        <Node pos="l" depth="6" NCoef="0"     IVar="6" Cut="     6.200220E-03" cType="1"     res="     0.000000E+00" rms="0.0"     purity="0.00000000E+00" nType="0">
                            <Node pos="l" depth="7" NCoef="0"     IVar="-1" Cut="     0.000000E+00" cType="1"     res="     8.392493E-02" rms="0.0e-00"     purity="0.00000000E+00" nType="-99">
                            </Node>
                            <Node pos="r" depth="7" NCoef="0"     IVar="-1" Cut="     0.000000E+00" cType="1"     res="    -2.073072E-01" rms="0.0e-00"     purity="0.00000000E+00" nType="-99">
                            </Node>
                        </Node>
                        <Node pos="r" depth="6" NCoef="0"     IVar="4" Cut="     1.801039E+01" cType="1"     res="     0.000000E+00" rms="0.0"     purity="0.00000000E+00" nType="0">
                            <Node pos="l" depth="7" NCoef="0"     IVar="-1" Cut="     0.000000E+00" cType="1"     res="    -2.763275E-01" rms="0.0e-00"     purity="0.00000000E+00" nType="-99">
                            </Node>
                            <Node pos="r" depth="7" NCoef="0"     IVar="-1" Cut="     0.000000E+00" cType="1"     res="    -4.294945E-01" rms="0.0e-00"     purity="0.00000000E+00" nType="-99">
                            </Node>
                        </Node>
                    </Node>
                    <Node pos="r" depth="5" NCoef="0"     IVar="6" Cut="     6.085363E-03" cType="1"     res="     0.000000E+00" rms="0.0"     purity="0.00000000E+00" nType="0">
                        <Node pos="l" depth="6" NCoef="0"     IVar="5" Cut="     4.239604E-03" cType="1"     res="     0.000000E+00" rms="0.0"     purity="0.00000000E+00" nType="0">
                            <Node pos="l" depth="7" NCoef="0"     IVar="-1" Cut="     0.000000E+00" cType="1"     res="    -2.718269E-01" rms="0.0e-00"     purity="0.00000000E+00" nType="-99">
                            </Node>
                            <Node pos="r" depth="7" NCoef="0"     IVar="-1" Cut="     0.000000E+00" cType="1"     res="    -4.176564E-01" rms="0.0e-00"     purity="0.00000000E+00" nType="-99">
                            </Node>
                        </Node>
                        <Node pos="r" depth="6" NCoef="0"     IVar="4" Cut="     1.101524E+01" cType="1"     res="     0.000000E+00" rms="0.0"     purity="0.00000000E+00" nType="0">
                            <Node pos="l" depth="7" NCoef="0"     IVar="-1" Cut="     0.000000E+00" cType="1"     res="    -4.152407E-01" rms="0.0e-00"     purity="0.00000000E+00" nType="-99">
                            </Node>
                            <Node pos="r" depth="7" NCoef="0"     IVar="-1" Cut="     0.000000E+00" cType="1"     res="    -4.595535E-01" rms="0.0e-00"     purity="0.00000000E+00" nType="-99">
                            </Node>
                        </Node>
                    </Node>
                </Node>
            </Node>
        </Node>
        <Node pos="r" depth="2" NCoef="0"     IVar="3" Cut="     1.800000E+01" cType="1"     res="     0.000000E+00" rms="0.0"     purity="0.00000000E+00" nType="0">
            <Node pos="l" depth="3" NCoef="0"     IVar="6" Cut="     4.859018E-03" cType="1"     res="     0.000000E+00" rms="0.0"     purity="0.00000000E+00" nType="0">
                <Node pos="l" depth="4" NCoef="0"     IVar="4" Cut="     1.229139E+01" cType="1"     res="     0.000000E+00" rms="0.0"     purity="0.00000000E+00" nType="0">
                    <Node pos="l" depth="5" NCoef="0"     IVar="0" Cut="     1.250000E+01" cType="1"     res="     0.000000E+00" rms="0.0"     purity="0.00000000E+00" nType="0">
                        <Node pos="l" depth="6" NCoef="0"     IVar="6" Cut="     3.804974E-03" cType="1"     res="     0.000000E+00" rms="0.0"     purity="0.00000000E+00" nType="0">
                            <Node pos="l" depth="7" NCoef="0"     IVar="-1" Cut="     0.000000E+00" cType="1"     res="    -4.127990E-01" rms="0.0e-00"     purity="0.00000000E+00" nType="-99">
                            </Node>
                            <Node pos="r" depth="7" NCoef="0"     IVar="-1" Cut="     0.000000E+00" cType="1"     res="    -2.930516E-03" rms="0.0e-00"     purity="0.00000000E+00" nType="-99">
                            </Node>
                        </Node>
                        <Node pos="r" depth="6" NCoef="0"     IVar="5" Cut="     3.466426E-03" cType="1"     res="     0.000000E+00" rms="0.0"     purity="0.00000000E+00" nType="0">
                            <Node pos="l" depth="7" NCoef="0"     IVar="-1" Cut="     0.000000E+00" cType="1"     res="     4.605452E-01" rms="0.0e-00"     purity="0.00000000E+00" nType="-99">
                            </Node>
                            <Node pos="r" depth="7" NCoef="0"     IVar="-1" Cut="     0.000000E+00" cType="1"     res="     2.098852E-01" rms="0.0e-00"     purity="0.00000000E+00" nType="-99">
                            </Node>
                        </Node>
                    </Node>
                    <Node pos="r" depth="5" NCoef="0"     IVar="1" Cut="     4.050000E+01" cType="1"     res="     0.000000E+00" rms="0.0"     purity="0.00000000E+00" nType="0">
                        <Node pos="l" depth="6" NCoef="0"     IVar="-1" Cut="     0.000000E+00" cType="1"     res="    -5.054675E-01" rms="0.0e-00"     purity="0.00000000E+00" nType="-99">
                        </Node>
                        <Node pos="r" depth="6" NCoef="0"     IVar="3" Cut="     1.600000E+01" cType="1"     res="     0.000000E+00" rms="0.0"     purity="0.00000000E+00" nType="0">
                            <Node pos="l" depth="7" NCoef="0"     IVar="-1" Cut="     0.000000E+00" cType="1"     res="     4.078511E-01" rms="0.0e-00"     purity="0.00000000E+00" nType="-99">
                            </Node>
                            <Node pos="r" depth="7" NCoef="0"     IVar="-1" Cut="     0.000000E+00" cType="1"     res="    -3.152167E-01" rms="0.0e-00"     purity="0.00000000E+00" nType="-99">
                            </Node>
                        </Node>
                    </Node>
                </Node>
                <Node pos="r" depth="4" NCoef="0"     IVar="6" Cut="     5.825548E-03" cType="1"     res="     0.000000E+00" rms="0.0"     purity="0.00000000E+00" nType="0">
                    <Node pos="l" depth="5" NCoef="0"     IVar="5" Cut="     3.523887E-03" cType="1"     res="     0.000000E+00" rms="0.0"     purity="0.00000000E+00" nType="0">
                        <Node pos="l" depth="6" NCoef="0"     IVar="4" Cut="     1.712547E+01" cType="1"     res="     0.000000E+00" rms="0.0"     purity="0.00000000E+00" nType="0">
                            <Node pos="l" depth="7" NCoef="0"     IVar="-1" Cut="     0.000000E+00" cType="1"     res="     1.832716E-01" rms="0.0e-00"     purity="0.00000000E+00" nType="-99">
                            </Node>
                            <Node pos="r" depth="7" NCoef="0"     IVar="-1" Cut="     0.000000E+00" cType="1"     res="    -4.236627E-01" rms="0.0e-00"     purity="0.00000000E+00" nType="-99">
                            </Node>
                        </Node>
                        <Node pos="r" depth="6" NCoef="0"     IVar="4" Cut="     7.584033E+00" cType="1"     res="     0.000000E+00" rms="0.0"     purity="0.00000000E+00" nType="0">
                            <Node pos="l" depth="7" NCoef="0"     IVar="-1" Cut="     0.000000E+00" cType="1"     res="     7.795312E-02" rms="0.0e-00"     purity="0.00000000E+00" nType="-99">
                            </Node>
                            <Node pos="r" depth="7" NCoef="0"     IVar="-1" Cut="     0.000000E+00" cType="1"     res="    -4.206202E-01" rms="0.0e-00"     purity="0.00000000E+00" nType="-99">
                            </Node>
                        </Node>
                    </Node>
                    <Node pos="r" depth="5" NCoef="0"     IVar="4" Cut="     6.115516E+00" cType="1"     res="     0.000000E+00" rms="0.0"     purity="0.00000000E+00" nType="0">
                        <Node pos="l" depth="6" NCoef="0"     IVar="-1" Cut="     0.000000E+00" cType="1"     res="     9.680921E-02" rms="0.0e-00"     purity="0.00000000E+00" nType="-99">
                        </Node>
                        <Node pos="r" depth="6" NCoef="0"     IVar="8" Cut="     1.331033E-02" cType="1"     res="     0.000000E+00" rms="0.0"     purity="0.00000000E+00" nType="0">
                            <Node pos="l" depth="7" NCoef="0"     IVar="-1" Cut="     0.000000E+00" cType="1"     res="    -1.359047E-01" rms="0.0e-00"     purity="0.00000000E+00" nType="-99">
                            </Node>
                            <Node pos="r" depth="7" NCoef="0"     IVar="-1" Cut="     0.000000E+00" cType="1"     res="    -4.593158E-01" rms="0.0e-00"     purity="0.00000000E+00" nType="-99">
                            </Node>
                        </Node>
                    </Node>
                </Node>
            </Node>
            <Node pos="r" depth="3" NCoef="0"     IVar="3" Cut="     2.000000E+01" cType="1"     res="     0.000000E+00" rms="0.0"     purity="0.00000000E+00" nType="0">
                <Node pos="l" depth="4" NCoef="0"     IVar="4" Cut="     9.240942E+00" cType="1"     res="     0.000000E+00" rms="0.0"     purity="0.00000000E+00" nType="0">
                    <Node pos="l" depth="5" NCoef="0"     IVar="0" Cut="     1.350000E+01" cType="1"     res="     0.000000E+00" rms="0.0"     purity="0.00000000E+00" nType="0">
                        <Node pos="l" depth="6" NCoef="0"     IVar="0" Cut="     7.500000E+00" cType="1"     res="     0.000000E+00" rms="0.0"     purity="0.00000000E+00" nType="0">
                            <Node pos="l" depth="7" NCoef="0"     IVar="-1" Cut="     0.000000E+00" cType="1"     res="    -2.927217E-01" rms="0.0e-00"     purity="0.00000000E+00" nType="-99">
                            </Node>
                            <Node pos="r" depth="7" NCoef="0"     IVar="-1" Cut="     0.000000E+00" cType="1"     res="     1.127213E-02" rms="0.0e-00"     purity="0.00000000E+00" nType="-99">
                            </Node>
                        </Node>
                        <Node pos="r" depth="6" NCoef="0"     IVar="7" Cut="     2.881453E-02" cType="1"     res="     0.000000E+00" rms="0.0"     purity="0.00000000E+00" nType="0">
                            <Node pos="l" depth="7" NCoef="0"     IVar="-1" Cut="     0.000000E+00" cType="1"     res="     4.063924E-01" rms="0.0e-00"     purity="0.00000000E+00" nType="-99">
                            </Node>
                            <Node pos="r" depth="7" NCoef="0"     IVar="-1" Cut="     0.000000E+00" cType="1"     res="    -6.613229E-02" rms="0.0e-00"     purity="0.00000000E+00" nType="-99">
                            </Node>
                        </Node>
                    </Node>
                    <Node pos="r" depth="5" NCoef="0"     IVar="6" Cut="     4.640209E-03" cType="1"     res="     0.000000E+00" rms="0.0"     purity="0.00000000E+00" nType="0">
                        <Node pos="l" depth="6" NCoef="0"     IVar="-1" Cut="     0.000000E+00" cType="1"     res="     4.489091E-02" rms="0.0e-00"     purity="0.00000000E+00" nType="-99">
                        </Node>
                        <Node pos="r" depth="6" NCoef="0"     IVar="-1" Cut="     0.000000E+00" cType="1"     res="    -4.533079E-01" rms="0.0e-00"     purity="0.00000000E+00" nType="-99">
                        </Node>
                    </Node>
                </Node>
                <Node pos="r" depth="4" NCoef="0"     IVar="2" Cut="     3.700000E+01" cType="1"     res="     0.000000E+00" rms="0.0"     purity="0.00000000E+00" nType="0">
                    <Node pos="l" depth="5" NCoef="0"     IVar="-1" Cut="     0.000000E+00" cType="1"     res="    -4.625277E-01" rms="0.0e-00"     purity="0.00000000E+00" nType="-99">
                    </Node>
                    <Node pos="r" depth="5" NCoef="0"     IVar="4" Cut="     6.718442E+00" cType="1"     res="     0.000000E+00" rms="0.0"     purity="0.00000000E+00" nType="0">
                        <Node pos="l" depth="6" NCoef="0"     IVar="-1" Cut="     0.000000E+00" cType="1"     res="     3.492275E-01" rms="0.0e-00"     purity="0.00000000E+00" nType="-99">
                        </Node>
                        <Node pos="r" depth="6" NCoef="0"     IVar="1" Cut="     7.500000E+00" cType="1"     res="     0.000000E+00" rms="0.0"     purity="0.00000000E+00" nType="0">
                            <Node pos="l" depth="7" NCoef="0"     IVar="-1" Cut="     0.000000E+00" cType="1"     res="    -1.612004E-01" rms="0.0e-00"     purity="0.00000000E+00" nType="-99">
                            </Node>
                            <Node pos="r" depth="7" NCoef="0"     IVar="-1" Cut="     0.000000E+00" cType="1"     res="    -4.294187E-01" rms="0.0e-00"     purity="0.00000000E+00" nType="-99">
                            </Node>
                        </Node>
                    </Node>
                </Node>
            </Node>
        </Node>
    </Node>
</BinaryTree>
<BinaryTree type="DecisionTree" boostWeight="0.0" itree="2">
    <Node pos="c" depth="1" NCoef="0"     IVar="3" Cut="     1.600000E+01" cType="1"     res="     0.000000E+00" rms="0.0"     purity="0.00000000E+00" nType="0">
        <Node pos="l" depth="2" NCoef="0"     IVar="6" Cut="     5.208285E-03" cType="1"     res="     0.000000E+00" rms="0.0"     purity="0.00000000E+00" nType="0">
            <Node pos="l" depth="3" NCoef="0"     IVar="5" Cut="     3.748581E-03" cType="1"     res="     0.000000E+00" rms="0.0"     purity="0.00000000E+00" nType="0">
                <Node pos="l" depth="4" NCoef="0"     IVar="4" Cut="     1.308459E+01" cType="1"     res="     0.000000E+00" rms="0.0"     purity="0.00000000E+00" nType="0">
                    <Node pos="l" depth="5" NCoef="0"     IVar="5" Cut="     2.077530E-03" cType="1"     res="     0.000000E+00" rms="0.0"     purity="0.00000000E+00" nType="0">
                        <Node pos="l" depth="6" NCoef="0"     IVar="0" Cut="     9.500000E+00" cType="1"     res="     0.000000E+00" rms="0.0"     purity="0.00000000E+00" nType="0">
                            <Node pos="l" depth="7" NCoef="0"     IVar="-1" Cut="     0.000000E+00" cType="1"     res="    -8.466359E-01" rms="0.0e-00"     purity="0.00000000E+00" nType="-99">
                            </Node>
                            <Node pos="r" depth="7" NCoef="0"     IVar="-1" Cut="     0.000000E+00" cType="1"     res="     2.284524E-01" rms="0.0e-00"     purity="0.00000000E+00" nType="-99">
                            </Node>
                        </Node>
                        <Node pos="r" depth="6" NCoef="0"     IVar="2" Cut="     2.000000E+00" cType="1"     res="     0.000000E+00" rms="0.0"     purity="0.00000000E+00" nType="0">
                            <Node pos="l" depth="7" NCoef="0"     IVar="-1" Cut="     0.000000E+00" cType="1"     res="     3.668601E-01" rms="0.0e-00"     purity="0.00000000E+00" nType="-99">
                            </Node>
                            <Node pos="r" depth="7" NCoef="0"     IVar="-1" Cut="     0.000000E+00" cType="1"     res="     2.560358E-01" rms="0.0e-00"     purity="0.00000000E+00" nType="-99">
                            </Node>
                        </Node>
                    </Node>
                    <Node pos="r" depth="5" NCoef="0"     IVar="1" Cut="     4.050000E+01" cType="1"     res="     0.000000E+00" rms="0.0"     purity="0.00000000E+00" nType="0">
                        <Node pos="l" depth="6" NCoef="0"     IVar="5" Cut="     3.469703E-03" cType="1"     res="     0.000000E+00" rms="0.0"     purity="0.00000000E+00" nType="0">
                            <Node pos="l" depth="7" NCoef="0"     IVar="-1" Cut="     0.000000E+00" cType="1"     res="     2.117035E-02" rms="0.0e-00"     purity="0.00000000E+00" nType="-99">
                            </Node>
                            <Node pos="r" depth="7" NCoef="0"     IVar="-1" Cut="     0.000000E+00" cType="1"     res="    -2.950746E-01" rms="0.0e-00"     purity="0.00000000E+00" nType="-99">
                            </Node>
                        </Node>
                        <Node pos="r" depth="6" NCoef="0"     IVar="4" Cut="     2.857892E+01" cType="1"     res="     0.000000E+00" rms="0.0"     purity="0.00000000E+00" nType="0">
                            <Node pos="l" depth="7" NCoef="0"     IVar="-1" Cut="     0.000000E+00" cType="1"     res="     2.591619E-01" rms="0.0e-00"     purity="0.00000000E+00" nType="-99">
                            </Node>
                            <Node pos="r" depth="7" NCoef="0"     IVar="-1" Cut="     0.000000E+00" cType="1"     res="    -1.954340E-01" rms="0.0e-00"     purity="0.00000000E+00" nType="-99">
                            </Node>
                        </Node>
                    </Node>
                </Node>
                <Node pos="r" depth="4" NCoef="0"     IVar="4" Cut="     9.731112E+00" cType="1"     res="     0.000000E+00" rms="0.0"     purity="0.00000000E+00" nType="0">
                    <Node pos="l" depth="5" NCoef="0"     IVar="7" Cut="     2.330703E-02" cType="1"     res="     0.000000E+00" rms="0.0"     purity="0.00000000E+00" nType="0">
                        <Node pos="l" depth="6" NCoef="0"     IVar="6" Cut="     4.612799E-03" cType="1"     res="     0.000000E+00" rms="0.0"     purity="0.00000000E+00" nType="0">
                            <Node pos="l" depth="7" NCoef="0"     IVar="-1" Cut="     0.000000E+00" cType="1"     res="     1.843600E-01" rms="0.0e-00"     purity="0.00000000E+00" nType="-99">
                            </Node>
                            <Node pos="r" depth="7" NCoef="0"     IVar="-1" Cut="     0.000000E+00" cType="1"     res="    -1.566134E-01" rms="0.0e-00"     purity="0.00000000E+00" nType="-99">
                            </Node>
                        </Node>
                        <Node pos="r" depth="6" NCoef="0"     IVar="5" Cut="     3.986983E-03" cType="1"     res="     0.000000E+00" rms="0.0"     purity="0.00000000E+00" nType="0">
                            <Node pos="l" depth="7" NCoef="0"     IVar="-1" Cut="     0.000000E+00" cType="1"     res="     2.891250E-01" rms="0.0e-00"     purity="0.00000000E+00" nType="-99">
                            </Node>
                            <Node pos="r" depth="7" NCoef="0"     IVar="-1" Cut="     0.000000E+00" cType="1"     res="     7.707547E-02" rms="0.0e-00"     purity="0.00000000E+00" nType="-99">
                            </Node>
                        </Node>
                    </Node>
                    <Node pos="r" depth="5" NCoef="0"     IVar="3" Cut="     8.000000E+00" cType="1"     res="     0.000000E+00" rms="0.0"     purity="0.00000000E+00" nType="0">
                        <Node pos="l" depth="6" NCoef="0"     IVar="1" Cut="     5.050000E+01" cType="1"     res="     0.000000E+00" rms="0.0"     purity="0.00000000E+00" nType="0">
                            <Node pos="l" depth="7" NCoef="0"     IVar="-1" Cut="     0.000000E+00" cType="1"     res="    -3.267893E-01" rms="0.0e-00"     purity="0.00000000E+00" nType="-99">
                            </Node>
                            <Node pos="r" depth="7" NCoef="0"     IVar="-1" Cut="     0.000000E+00" cType="1"     res="     3.636371E-01" rms="0.0e-00"     purity="0.00000000E+00" nType="-99">
                            </Node>
                        </Node>
                        <Node pos="r" depth="6" NCoef="0"     IVar="1" Cut="     4.350000E+01" cType="1"     res="     0.000000E+00" rms="0.0"     purity="0.00000000E+00" nType="0">
                            <Node pos="l" depth="7" NCoef="0"     IVar="-1" Cut="     0.000000E+00" cType="1"     res="    -1.094548E-01" rms="0.0e-00"     purity="0.00000000E+00" nType="-99">
                            </Node>
                            <Node pos="r" depth="7" NCoef="0"     IVar="-1" Cut="     0.000000E+00" cType="1"     res="     2.358054E-01" rms="0.0e-00"     purity="0.00000000E+00" nType="-99">
                            </Node>
                        </Node>
                    </Node>
                </Node>
            </Node>
            <Node pos="r" depth="3" NCoef="0"     IVar="5" Cut="     3.782473E-03" cType="1"     res="     0.000000E+00" rms="0.0"     purity="0.00000000E+00" nType="0">
                <Node pos="l" depth="4" NCoef="0"     IVar="4" Cut="     1.385284E+01" cType="1"     res="     0.000000E+00" rms="0.0"     purity="0.00000000E+00" nType="0">
                    <Node pos="l" depth="5" NCoef="0"     IVar="6" Cut="     6.413441E-03" cType="1"     res="     0.000000E+00" rms="0.0"     purity="0.00000000E+00" nType="0">
                        <Node pos="l" depth="6" NCoef="0"     IVar="2" Cut="     2.000000E+00" cType="1"     res="     0.000000E+00" rms="0.0"     purity="0.00000000E+00" nType="0">
                            <Node pos="l" depth="7" NCoef="0"     IVar="-1" Cut="     0.000000E+00" cType="1"     res="     2.428372E-01" rms="0.0e-00"     purity="0.00000000E+00" nType="-99">
                            </Node>
                            <Node pos="r" depth="7" NCoef="0"     IVar="-1" Cut="     0.000000E+00" cType="1"     res="     2.554451E-02" rms="0.0e-00"     purity="0.00000000E+00" nType="-99">
                            </Node>
                        </Node>
                        <Node pos="r" depth="6" NCoef="0"     IVar="5" Cut="     3.328459E-03" cType="1"     res="     0.000000E+00" rms="0.0"     purity="0.00000000E+00" nType="0">
                            <Node pos="l" depth="7" NCoef="0"     IVar="-1" Cut="     0.000000E+00" cType="1"     res="     1.659256E-01" rms="0.0e-00"     purity="0.00000000E+00" nType="-99">
                            </Node>
                            <Node pos="r" depth="7" NCoef="0"     IVar="-1" Cut="     0.000000E+00" cType="1"     res="    -1.751208E-01" rms="0.0e-00"     purity="0.00000000E+00" nType="-99">
                            </Node>
                        </Node>
                    </Node>
                    <Node pos="r" depth="5" NCoef="0"     IVar="6" Cut="     6.601008E-03" cType="1"     res="     0.000000E+00" rms="0.0"     purity="0.00000000E+00" nType="0">
                        <Node pos="l" depth="6" NCoef="0"     IVar="4" Cut="     1.844875E+01" cType="1"     res="     0.000000E+00" rms="0.0"     purity="0.00000000E+00" nType="0">
                            <Node pos="l" depth="7" NCoef="0"     IVar="-1" Cut="     0.000000E+00" cType="1"     res="     1.052946E-01" rms="0.0e-00"     purity="0.00000000E+00" nType="-99">
                            </Node>
                            <Node pos="r" depth="7" NCoef="0"     IVar="-1" Cut="     0.000000E+00" cType="1"     res="    -1.674573E-01" rms="0.0e-00"     purity="0.00000000E+00" nType="-99">
                            </Node>
                        </Node>
                        <Node pos="r" depth="6" NCoef="0"     IVar="0" Cut="     1.550000E+01" cType="1"     res="     0.000000E+00" rms="0.0"     purity="0.00000000E+00" nType="0">
                            <Node pos="l" depth="7" NCoef="0"     IVar="-1" Cut="     0.000000E+00" cType="1"     res="    -2.342536E-01" rms="0.0e-00"     purity="0.00000000E+00" nType="-99">
                            </Node>
                            <Node pos="r" depth="7" NCoef="0"     IVar="-1" Cut="     0.000000E+00" cType="1"     res="    -3.813301E-01" rms="0.0e-00"     purity="0.00000000E+00" nType="-99">
                            </Node>
                        </Node>
                    </Node>
                </Node>
                <Node pos="r" depth="4" NCoef="0"     IVar="6" Cut="     5.716537E-03" cType="1"     res="     0.000000E+00" rms="0.0"     purity="0.00000000E+00" nType="0">
                    <Node pos="l" depth="5" NCoef="0"     IVar="4" Cut="     1.384816E+01" cType="1"     res="     0.000000E+00" rms="0.0"     purity="0.00000000E+00" nType="0">
                        <Node pos="l" depth="6" NCoef="0"     IVar="7" Cut="     2.568305E-02" cType="1"     res="     0.000000E+00" rms="0.0"     purity="0.00000000E+00" nType="0">
                            <Node pos="l" depth="7" NCoef="0"     IVar="-1" Cut="     0.000000E+00" cType="1"     res="    -3.008905E-01" rms="0.0e-00"     purity="0.00000000E+00" nType="-99">
                            </Node>
                            <Node pos="r" depth="7" NCoef="0"     IVar="-1" Cut="     0.000000E+00" cType="1"     res="    -6.327697E-02" rms="0.0e-00"     purity="0.00000000E+00" nType="-99">
                            </Node>
                        </Node>
                        <Node pos="r" depth="6" NCoef="0"     IVar="1" Cut="     4.350000E+01" cType="1"     res="     0.000000E+00" rms="0.0"     purity="0.00000000E+00" nType="0">
                            <Node pos="l" depth="7" NCoef="0"     IVar="-1" Cut="     0.000000E+00" cType="1"     res="    -3.842545E-01" rms="0.0e-00"     purity="0.00000000E+00" nType="-99">
                            </Node>
                            <Node pos="r" depth="7" NCoef="0"     IVar="-1" Cut="     0.000000E+00" cType="1"     res="    -2.229515E-01" rms="0.0e-00"     purity="0.00000000E+00" nType="-99">
                            </Node>
                        </Node>
                    </Node>
                    <Node pos="r" depth="5" NCoef="0"     IVar="5" Cut="     4.212458E-03" cType="1"     res="     0.000000E+00" rms="0.0"     purity="0.00000000E+00" nType="0">
                        <Node pos="l" depth="6" NCoef="0"     IVar="4" Cut="     1.261469E+01" cType="1"     res="     0.000000E+00" rms="0.0"     purity="0.00000000E+00" nType="0">
                            <Node pos="l" depth="7" NCoef="0"     IVar="-1" Cut="     0.000000E+00" cType="1"     res="    -2.034301E-01" rms="0.0e-00"     purity="0.00000000E+00" nType="-99">
                            </Node>
                            <Node pos="r" depth="7" NCoef="0"     IVar="-1" Cut="     0.000000E+00" cType="1"     res="    -3.759276E-01" rms="0.0e-00"     purity="0.00000000E+00" nType="-99">
                            </Node>
                        </Node>
                        <Node pos="r" depth="6" NCoef="0"     IVar="7" Cut="     1.275762E-02" cType="1"     res="     0.000000E+00" rms="0.0"     purity="0.00000000E+00" nType="0">
                            <Node pos="l" depth="7" NCoef="0"     IVar="-1" Cut="     0.000000E+00" cType="1"     res="    -1.118003E-01" rms="0.0e-00"     purity="0.00000000E+00" nType="-99">
                            </Node>
                            <Node pos="r" depth="7" NCoef="0"     IVar="-1" Cut="     0.000000E+00" cType="1"     res="    -3.957488E-01" rms="0.0e-00"     purity="0.00000000E+00" nType="-99">
                            </Node>
                        </Node>
                    </Node>
                </Node>
            </Node>
        </Node>
        <Node pos="r" depth="2" NCoef="0"     IVar="3" Cut="     2.000000E+01" cType="1"     res="     0.000000E+00" rms="0.0"     purity="0.00000000E+00" nType="0">
            <Node pos="l" depth="3" NCoef="0"     IVar="4" Cut="     9.262961E+00" cType="1"     res="     0.000000E+00" rms="0.0"     purity="0.00000000E+00" nType="0">
                <Node pos="l" depth="4" NCoef="0"     IVar="0" Cut="     1.350000E+01" cType="1"     res="     0.000000E+00" rms="0.0"     purity="0.00000000E+00" nType="0">
                    <Node pos="l" depth="5" NCoef="0"     IVar="6" Cut="     4.246386E-03" cType="1"     res="     0.000000E+00" rms="0.0"     purity="0.00000000E+00" nType="0">
                        <Node pos="l" depth="6" NCoef="0"     IVar="0" Cut="     6.000000E+00" cType="1"     res="     0.000000E+00" rms="0.0"     purity="0.00000000E+00" nType="0">
                            <Node pos="l" depth="7" NCoef="0"     IVar="-1" Cut="     0.000000E+00" cType="1"     res="    -2.549429E-01" rms="0.0e-00"     purity="0.00000000E+00" nType="-99">
                            </Node>
                            <Node pos="r" depth="7" NCoef="0"     IVar="-1" Cut="     0.000000E+00" cType="1"     res="     2.720794E-01" rms="0.0e-00"     purity="0.00000000E+00" nType="-99">
                            </Node>
                        </Node>
                        <Node pos="r" depth="6" NCoef="0"     IVar="-1" Cut="     0.000000E+00" cType="1"     res="    -3.669492E-01" rms="0.0e-00"     purity="0.00000000E+00" nType="-99">
                        </Node>
                    </Node>
                    <Node pos="r" depth="5" NCoef="0"     IVar="7" Cut="     2.723600E-02" cType="1"     res="     0.000000E+00" rms="0.0"     purity="0.00000000E+00" nType="0">
                        <Node pos="l" depth="6" NCoef="0"     IVar="-1" Cut="     0.000000E+00" cType="1"     res="     3.982213E-01" rms="0.0e-00"     purity="0.00000000E+00" nType="-99">
                        </Node>
                        <Node pos="r" depth="6" NCoef="0"     IVar="4" Cut="     8.419161E+00" cType="1"     res="     0.000000E+00" rms="0.0"     purity="0.00000000E+00" nType="0">
                            <Node pos="l" depth="7" NCoef="0"     IVar="-1" Cut="     0.000000E+00" cType="1"     res="    -5.408660E-02" rms="0.0e-00"     purity="0.00000000E+00" nType="-99">
                            </Node>
                            <Node pos="r" depth="7" NCoef="0"     IVar="-1" Cut="     0.000000E+00" cType="1"     res="     3.362233E-01" rms="0.0e-00"     purity="0.00000000E+00" nType="-99">
                            </Node>
                        </Node>
                    </Node>
                </Node>
                <Node pos="r" depth="4" NCoef="0"     IVar="6" Cut="     4.640209E-03" cType="1"     res="     0.000000E+00" rms="0.0"     purity="0.00000000E+00" nType="0">
                    <Node pos="l" depth="5" NCoef="0"     IVar="0" Cut="     1.450000E+01" cType="1"     res="     0.000000E+00" rms="0.0"     purity="0.00000000E+00" nType="0">
                        <Node pos="l" depth="6" NCoef="0"     IVar="-1" Cut="     0.000000E+00" cType="1"     res="    -3.357192E-01" rms="0.0e-00"     purity="0.00000000E+00" nType="-99">
                        </Node>
                        <Node pos="r" depth="6" NCoef="0"     IVar="8" Cut="     2.787142E-02" cType="1"     res="     0.000000E+00" rms="0.0"     purity="0.00000000E+00" nType="0">
                            <Node pos="l" depth="7" NCoef="0"     IVar="-1" Cut="     0.000000E+00" cType="1"     res="     3.394302E-01" rms="0.0e-00"     purity="0.00000000E+00" nType="-99">
                            </Node>
                            <Node pos="r" depth="7" NCoef="0"     IVar="-1" Cut="     0.000000E+00" cType="1"     res="    -5.726962E-02" rms="0.0e-00"     purity="0.00000000E+00" nType="-99">
                            </Node>
                        </Node>
                    </Node>
                    <Node pos="r" depth="5" NCoef="0"     IVar="6" Cut="     5.992967E-03" cType="1"     res="     0.000000E+00" rms="0.0"     purity="0.00000000E+00" nType="0">
                        <Node pos="l" depth="6" NCoef="0"     IVar="5" Cut="     3.381707E-03" cType="1"     res="     0.000000E+00" rms="0.0"     purity="0.00000000E+00" nType="0">
                            <Node pos="l" depth="7" NCoef="0"     IVar="-1" Cut="     0.000000E+00" cType="1"     res="    -1.092885E-01" rms="0.0e-00"     purity="0.00000000E+00" nType="-99">
                            </Node>
                            <Node pos="r" depth="7" NCoef="0"     IVar="-1" Cut="     0.000000E+00" cType="1"     res="    -3.629786E-01" rms="0.0e-00"     purity="0.00000000E+00" nType="-99">
                            </Node>
                        </Node>
                        <Node pos="r" depth="6" NCoef="0"     IVar="5" Cut="     2.727273E-03" cType="1"     res="     0.000000E+00" rms="0.0"     purity="0.00000000E+00" nType="0">
                            <Node pos="l" depth="7" NCoef="0"     IVar="-1" Cut="     0.000000E+00" cType="1"     res="    -1.087353E-01" rms="0.0e-00"     purity="0.00000000E+00" nType="-99">
                            </Node>
                            <Node pos="r" depth="7" NCoef="0"     IVar="-1" Cut="     0.000000E+00" cType="1"     res="    -4.024983E-01" rms="0.0e-00"     purity="0.00000000E+00" nType="-99">
                            </Node>
                        </Node>
                    </Node>
                </Node>
            </Node>
            <Node pos="r" depth="3" NCoef="0"     IVar="2" Cut="     3.700000E+01" cType="1"     res="     0.000000E+00" rms="0.0"     purity="0.00000000E+00" nType="0">
                <Node pos="l" depth="4" NCoef="0"     IVar="3" Cut="     2.400000E+01" cType="1"     res="     0.000000E+00" rms="0.0"     purity="0.00000000E+00" nType="0">
                    <Node pos="l" depth="5" NCoef="0"     IVar="6" Cut="     3.946852E-03" cType="1"     res="     0.000000E+00" rms="0.0"     purity="0.00000000E+00" nType="0">
                        <Node pos="l" depth="6" NCoef="0"     IVar="0" Cut="     1.350000E+01" cType="1"     res="     0.000000E+00" rms="0.0"     purity="0.00000000E+00" nType="0">
                            <Node pos="l" depth="7" NCoef="0"     IVar="-1" Cut="     0.000000E+00" cType="1"     res="    -2.157381E-01" rms="0.0e-00"     purity="0.00000000E+00" nType="-99">
                            </Node>
                            <Node pos="r" depth="7" NCoef="0"     IVar="-1" Cut="     0.000000E+00" cType="1"     res="     3.147689E-01" rms="0.0e-00"     purity="0.00000000E+00" nType="-99">
                            </Node>
                        </Node>
                        <Node pos="r" depth="6" NCoef="0"     IVar="6" Cut="     4.917009E-03" cType="1"     res="     0.000000E+00" rms="0.0"     purity="0.00000000E+00" nType="0">
                            <Node pos="l" depth="7" NCoef="0"     IVar="-1" Cut="     0.000000E+00" cType="1"     res="    -2.185782E-01" rms="0.0e-00"     purity="0.00000000E+00" nType="-99">
                            </Node>
                            <Node pos="r" depth="7" NCoef="0"     IVar="-1" Cut="     0.000000E+00" cType="1"     res="    -3.943641E-01" rms="0.0e-00"     purity="0.00000000E+00" nType="-99">
                            </Node>
                        </Node>
                    </Node>
                    <Node pos="r" depth="5" NCoef="0"     IVar="-1" Cut="     0.000000E+00" cType="1"     res="    -4.013880E-01" rms="0.0e-00"     purity="0.00000000E+00" nType="-99">
                    </Node>
                </Node>
                <Node pos="r" depth="4" NCoef="0"     IVar="4" Cut="     6.718442E+00" cType="1"     res="     0.000000E+00" rms="0.0"     purity="0.00000000E+00" nType="0">
                    <Node pos="l" depth="5" NCoef="0"     IVar="-1" Cut="     0.000000E+00" cType="1"     res="     2.991405E-01" rms="0.0e-00"     purity="0.00000000E+00" nType="-99">
                    </Node>
                    <Node pos="r" depth="5" NCoef="0"     IVar="1" Cut="     7.500000E+00" cType="1"     res="     0.000000E+00" rms="0.0"     purity="0.00000000E+00" nType="0">
                        <Node pos="l" depth="6" NCoef="0"     IVar="-1" Cut="     0.000000E+00" cType="1"     res="    -1.313299E-01" rms="0.0e-00"     purity="0.00000000E+00" nType="-99">
                        </Node>
                        <Node pos="r" depth="6" NCoef="0"     IVar="-1" Cut="     0.000000E+00" cType="1"     res="    -3.687155E-01" rms="0.0e-00"     purity="0.00000000E+00" nType="-99">
                        </Node>
                    </Node>
                </Node>
            </Node>
        </Node>
    </Node>
</BinaryTree>
<BinaryTree type="DecisionTree" boostWeight="0.0" itree="3">
    <Node pos="c" depth="1" NCoef="0"     IVar="3" Cut="     1.400000E+01" cType="1"     res="     0.000000E+00" rms="0.0"     purity="0.00000000E+00" nType="0">
        <Node pos="l" depth="2" NCoef="0"     IVar="6" Cut="     5.037529E-03" cType="1"     res="     0.000000E+00" rms="0.0"     purity="0.00000000E+00" nType="0">
            <Node pos="l" depth="3" NCoef="0"     IVar="6" Cut="     4.463320E-03" cType="1"     res="     0.000000E+00" rms="0.0"     purity="0.00000000E+00" nType="0">
                <Node pos="l" depth="4" NCoef="0"     IVar="5" Cut="     2.077530E-03" cType="1"     res="     0.000000E+00" rms="0.0"     purity="0.00000000E+00" nType="0">
                    <Node pos="l" depth="5" NCoef="0"     IVar="0" Cut="     9.500000E+00" cType="1"     res="     0.000000E+00" rms="0.0"     purity="0.00000000E+00" nType="0">
                        <Node pos="l" depth="6" NCoef="0"     IVar="-1" Cut="     0.000000E+00" cType="1"     res="    -5.709236E-01" rms="0.0e-00"     purity="0.00000000E+00" nType="-99">
                        </Node>
                        <Node pos="r" depth="6" NCoef="0"     IVar="-1" Cut="     0.000000E+00" cType="1"     res="    -8.330533E-03" rms="0.0e-00"     purity="0.00000000E+00" nType="-99">
                        </Node>
                    </Node>
                    <Node pos="r" depth="5" NCoef="0"     IVar="0" Cut="     1.250000E+01" cType="1"     res="     0.000000E+00" rms="0.0"     purity="0.00000000E+00" nType="0">
                        <Node pos="l" depth="6" NCoef="0"     IVar="4" Cut="     1.641932E+01" cType="1"     res="     0.000000E+00" rms="0.0"     purity="0.00000000E+00" nType="0">
                            <Node pos="l" depth="7" NCoef="0"     IVar="-1" Cut="     0.000000E+00" cType="1"     res="     2.661508E-01" rms="0.0e-00"     purity="0.00000000E+00" nType="-99">
                            </Node>
                            <Node pos="r" depth="7" NCoef="0"     IVar="-1" Cut="     0.000000E+00" cType="1"     res="    -9.477995E-02" rms="0.0e-00"     purity="0.00000000E+00" nType="-99">
                            </Node>
                        </Node>
                        <Node pos="r" depth="6" NCoef="0"     IVar="4" Cut="     2.113422E+01" cType="1"     res="     0.000000E+00" rms="0.0"     purity="0.00000000E+00" nType="0">
                            <Node pos="l" depth="7" NCoef="0"     IVar="-1" Cut="     0.000000E+00" cType="1"     res="     3.389506E-01" rms="0.0e-00"     purity="0.00000000E+00" nType="-99">
                            </Node>
                            <Node pos="r" depth="7" NCoef="0"     IVar="-1" Cut="     0.000000E+00" cType="1"     res="     5.004743E-02" rms="0.0e-00"     purity="0.00000000E+00" nType="-99">
                            </Node>
                        </Node>
                    </Node>
                </Node>
                <Node pos="r" depth="4" NCoef="0"     IVar="5" Cut="     3.549144E-03" cType="1"     res="     0.000000E+00" rms="0.0"     purity="0.00000000E+00" nType="0">
                    <Node pos="l" depth="5" NCoef="0"     IVar="4" Cut="     1.293917E+01" cType="1"     res="     0.000000E+00" rms="0.0"     purity="0.00000000E+00" nType="0">
                        <Node pos="l" depth="6" NCoef="0"     IVar="2" Cut="     2.000000E+00" cType="1"     res="     0.000000E+00" rms="0.0"     purity="0.00000000E+00" nType="0">
                            <Node pos="l" depth="7" NCoef="0"     IVar="-1" Cut="     0.000000E+00" cType="1"     res="     3.067637E-01" rms="0.0e-00"     purity="0.00000000E+00" nType="-99">
                            </Node>
                            <Node pos="r" depth="7" NCoef="0"     IVar="-1" Cut="     0.000000E+00" cType="1"     res="     1.185806E-01" rms="0.0e-00"     purity="0.00000000E+00" nType="-99">
                            </Node>
                        </Node>
                        <Node pos="r" depth="6" NCoef="0"     IVar="8" Cut="     3.032660E-02" cType="1"     res="     0.000000E+00" rms="0.0"     purity="0.00000000E+00" nType="0">
                            <Node pos="l" depth="7" NCoef="0"     IVar="-1" Cut="     0.000000E+00" cType="1"     res="     1.154482E-01" rms="0.0e-00"     purity="0.00000000E+00" nType="-99">
                            </Node>
                            <Node pos="r" depth="7" NCoef="0"     IVar="-1" Cut="     0.000000E+00" cType="1"     res="    -1.720595E-01" rms="0.0e-00"     purity="0.00000000E+00" nType="-99">
                            </Node>
                        </Node>
                    </Node>
                    <Node pos="r" depth="5" NCoef="0"     IVar="0" Cut="     1.350000E+01" cType="1"     res="     0.000000E+00" rms="0.0"     purity="0.00000000E+00" nType="0">
                        <Node pos="l" depth="6" NCoef="0"     IVar="7" Cut="     1.826914E-02" cType="1"     res="     0.000000E+00" rms="0.0"     purity="0.00000000E+00" nType="0">
                            <Node pos="l" depth="7" NCoef="0"     IVar="-1" Cut="     0.000000E+00" cType="1"     res="    -1.949201E-01" rms="0.0e-00"     purity="0.00000000E+00" nType="-99">
                            </Node>
                            <Node pos="r" depth="7" NCoef="0"     IVar="-1" Cut="     0.000000E+00" cType="1"     res="     4.363842E-03" rms="0.0e-00"     purity="0.00000000E+00" nType="-99">
                            </Node>
                        </Node>
                        <Node pos="r" depth="6" NCoef="0"     IVar="4" Cut="     1.071662E+01" cType="1"     res="     0.000000E+00" rms="0.0"     purity="0.00000000E+00" nType="0">
                            <Node pos="l" depth="7" NCoef="0"     IVar="-1" Cut="     0.000000E+00" cType="1"     res="     2.270189E-01" rms="0.0e-00"     purity="0.00000000E+00" nType="-99">
                            </Node>
                            <Node pos="r" depth="7" NCoef="0"     IVar="-1" Cut="     0.000000E+00" cType="1"     res="    -2.717540E-02" rms="0.0e-00"     purity="0.00000000E+00" nType="-99">
                            </Node>
                        </Node>
                    </Node>
                </Node>
            </Node>
            <Node pos="r" depth="3" NCoef="0"     IVar="5" Cut="     3.783409E-03" cType="1"     res="     0.000000E+00" rms="0.0"     purity="0.00000000E+00" nType="0">
                <Node pos="l" depth="4" NCoef="0"     IVar="4" Cut="     1.155437E+01" cType="1"     res="     0.000000E+00" rms="0.0"     purity="0.00000000E+00" nType="0">
                    <Node pos="l" depth="5" NCoef="0"     IVar="5" Cut="     3.479393E-03" cType="1"     res="     0.000000E+00" rms="0.0"     purity="0.00000000E+00" nType="0">
                        <Node pos="l" depth="6" NCoef="0"     IVar="3" Cut="     1.000000E+01" cType="1"     res="     0.000000E+00" rms="0.0"     purity="0.00000000E+00" nType="0">
                            <Node pos="l" depth="7" NCoef="0"     IVar="-1" Cut="     0.000000E+00" cType="1"     res="     2.663631E-01" rms="0.0e-00"     purity="0.00000000E+00" nType="-99">
                            </Node>
                            <Node pos="r" depth="7" NCoef="0"     IVar="-1" Cut="     0.000000E+00" cType="1"     res="     1.081405E-01" rms="0.0e-00"     purity="0.00000000E+00" nType="-99">
                            </Node>
                        </Node>
                        <Node pos="r" depth="6" NCoef="0"     IVar="1" Cut="     3.450000E+01" cType="1"     res="     0.000000E+00" rms="0.0"     purity="0.00000000E+00" nType="0">
                            <Node pos="l" depth="7" NCoef="0"     IVar="-1" Cut="     0.000000E+00" cType="1"     res="    -7.583740E-03" rms="0.0e-00"     purity="0.00000000E+00" nType="-99">
                            </Node>
                            <Node pos="r" depth="7" NCoef="0"     IVar="-1" Cut="     0.000000E+00" cType="1"     res="     1.936180E-01" rms="0.0e-00"     purity="0.00000000E+00" nType="-99">
                            </Node>
                        </Node>
                    </Node>
                    <Node pos="r" depth="5" NCoef="0"     IVar="0" Cut="     1.650000E+01" cType="1"     res="     0.000000E+00" rms="0.0"     purity="0.00000000E+00" nType="0">
                        <Node pos="l" depth="6" NCoef="0"     IVar="4" Cut="     2.837885E+01" cType="1"     res="     0.000000E+00" rms="0.0"     purity="0.00000000E+00" nType="0">
                            <Node pos="l" depth="7" NCoef="0"     IVar="-1" Cut="     0.000000E+00" cType="1"     res="     1.078599E-02" rms="0.0e-00"     purity="0.00000000E+00" nType="-99">
                            </Node>
                            <Node pos="r" depth="7" NCoef="0"     IVar="-1" Cut="     0.000000E+00" cType="1"     res="    -2.932610E-01" rms="0.0e-00"     purity="0.00000000E+00" nType="-99">
                            </Node>
                        </Node>
                        <Node pos="r" depth="6" NCoef="0"     IVar="6" Cut="     6.394773E-03" cType="1"     res="     0.000000E+00" rms="0.0"     purity="0.00000000E+00" nType="0">
                            <Node pos="l" depth="7" NCoef="0"     IVar="-1" Cut="     0.000000E+00" cType="1"     res="    -2.122332E-01" rms="0.0e-00"     purity="0.00000000E+00" nType="-99">
                            </Node>
                            <Node pos="r" depth="7" NCoef="0"     IVar="-1" Cut="     0.000000E+00" cType="1"     res="    -3.371953E-01" rms="0.0e-00"     purity="0.00000000E+00" nType="-99">
                            </Node>
                        </Node>
                    </Node>
                </Node>
                <Node pos="r" depth="4" NCoef="0"     IVar="6" Cut="     6.159132E-03" cType="1"     res="     0.000000E+00" rms="0.0"     purity="0.00000000E+00" nType="0">
                    <Node pos="l" depth="5" NCoef="0"     IVar="5" Cut="     4.239604E-03" cType="1"     res="     0.000000E+00" rms="0.0"     purity="0.00000000E+00" nType="0">
                        <Node pos="l" depth="6" NCoef="0"     IVar="4" Cut="     1.295042E+01" cType="1"     res="     0.000000E+00" rms="0.0"     purity="0.00000000E+00" nType="0">
                            <Node pos="l" depth="7" NCoef="0"     IVar="-1" Cut="     0.000000E+00" cType="1"     res="    -3.456372E-02" rms="0.0e-00"     purity="0.00000000E+00" nType="-99">
                            </Node>
                            <Node pos="r" depth="7" NCoef="0"     IVar="-1" Cut="     0.000000E+00" cType="1"     res="    -2.683930E-01" rms="0.0e-00"     purity="0.00000000E+00" nType="-99">
                            </Node>
                        </Node>
                        <Node pos="r" depth="6" NCoef="0"     IVar="7" Cut="     1.113619E-02" cType="1"     res="     0.000000E+00" rms="0.0"     purity="0.00000000E+00" nType="0">
                            <Node pos="l" depth="7" NCoef="0"     IVar="-1" Cut="     0.000000E+00" cType="1"     res="     2.486307E-01" rms="0.0e-00"     purity="0.00000000E+00" nType="-99">
                            </Node>
                            <Node pos="r" depth="7" NCoef="0"     IVar="-1" Cut="     0.000000E+00" cType="1"     res="    -3.013819E-01" rms="0.0e-00"     purity="0.00000000E+00" nType="-99">
                            </Node>
                        </Node>
                    </Node>
                    <Node pos="r" depth="5" NCoef="0"     IVar="5" Cut="     4.180975E-03" cType="1"     res="     0.000000E+00" rms="0.0"     purity="0.00000000E+00" nType="0">
                        <Node pos="l" depth="6" NCoef="0"     IVar="4" Cut="     1.446372E+01" cType="1"     res="     0.000000E+00" rms="0.0"     purity="0.00000000E+00" nType="0">
                            <Node pos="l" depth="7" NCoef="0"     IVar="-1" Cut="     0.000000E+00" cType="1"     res="    -2.043225E-01" rms="0.0e-00"     purity="0.00000000E+00" nType="-99">
                            </Node>
                            <Node pos="r" depth="7" NCoef="0"     IVar="-1" Cut="     0.000000E+00" cType="1"     res="    -3.469556E-01" rms="0.0e-00"     purity="0.00000000E+00" nType="-99">
                            </Node>
                        </Node>
                        <Node pos="r" depth="6" NCoef="0"     IVar="7" Cut="     1.345420E-02" cType="1"     res="     0.000000E+00" rms="0.0"     purity="0.00000000E+00" nType="0">
                            <Node pos="l" depth="7" NCoef="0"     IVar="-1" Cut="     0.000000E+00" cType="1"     res="    -7.108828E-02" rms="0.0e-00"     purity="0.00000000E+00" nType="-99">
                            </Node>
                            <Node pos="r" depth="7" NCoef="0"     IVar="-1" Cut="     0.000000E+00" cType="1"     res="    -3.617287E-01" rms="0.0e-00"     purity="0.00000000E+00" nType="-99">
                            </Node>
                        </Node>
                    </Node>
                </Node>
            </Node>
        </Node>
        <Node pos="r" depth="2" NCoef="0"     IVar="3" Cut="     1.800000E+01" cType="1"     res="     0.000000E+00" rms="0.0"     purity="0.00000000E+00" nType="0">
            <Node pos="l" depth="3" NCoef="0"     IVar="6" Cut="     4.859018E-03" cType="1"     res="     0.000000E+00" rms="0.0"     purity="0.00000000E+00" nType="0">
                <Node pos="l" depth="4" NCoef="0"     IVar="4" Cut="     1.229139E+01" cType="1"     res="     0.000000E+00" rms="0.0"     purity="0.00000000E+00" nType="0">
                    <Node pos="l" depth="5" NCoef="0"     IVar="0" Cut="     1.350000E+01" cType="1"     res="     0.000000E+00" rms="0.0"     purity="0.00000000E+00" nType="0">
                        <Node pos="l" depth="6" NCoef="0"     IVar="5" Cut="     3.685766E-03" cType="1"     res="     0.000000E+00" rms="0.0"     purity="0.00000000E+00" nType="0">
                            <Node pos="l" depth="7" NCoef="0"     IVar="-1" Cut="     0.000000E+00" cType="1"     res="     6.748308E-02" rms="0.0e-00"     purity="0.00000000E+00" nType="-99">
                            </Node>
                            <Node pos="r" depth="7" NCoef="0"     IVar="-1" Cut="     0.000000E+00" cType="1"     res="    -5.501735E-01" rms="0.0e-00"     purity="0.00000000E+00" nType="-99">
                            </Node>
                        </Node>
                        <Node pos="r" depth="6" NCoef="0"     IVar="6" Cut="     4.631034E-03" cType="1"     res="     0.000000E+00" rms="0.0"     purity="0.00000000E+00" nType="0">
                            <Node pos="l" depth="7" NCoef="0"     IVar="-1" Cut="     0.000000E+00" cType="1"     res="     3.415049E-01" rms="0.0e-00"     purity="0.00000000E+00" nType="-99">
                            </Node>
                            <Node pos="r" depth="7" NCoef="0"     IVar="-1" Cut="     0.000000E+00" cType="1"     res="     6.046858E-02" rms="0.0e-00"     purity="0.00000000E+00" nType="-99">
                            </Node>
                        </Node>
                    </Node>
                    <Node pos="r" depth="5" NCoef="0"     IVar="1" Cut="     4.050000E+01" cType="1"     res="     0.000000E+00" rms="0.0"     purity="0.00000000E+00" nType="0">
                        <Node pos="l" depth="6" NCoef="0"     IVar="4" Cut="     1.637215E+01" cType="1"     res="     0.000000E+00" rms="0.0"     purity="0.00000000E+00" nType="0">
                            <Node pos="l" depth="7" NCoef="0"     IVar="-1" Cut="     0.000000E+00" cType="1"     res="    -4.225644E-01" rms="0.0e-00"     purity="0.00000000E+00" nType="-99">
                            </Node>
                            <Node pos="r" depth="7" NCoef="0"     IVar="-1" Cut="     0.000000E+00" cType="1"     res="    -1.117080E-01" rms="0.0e-00"     purity="0.00000000E+00" nType="-99">
                            </Node>
                        </Node>
                        <Node pos="r" depth="6" NCoef="0"     IVar="3" Cut="     1.600000E+01" cType="1"     res="     0.000000E+00" rms="0.0"     purity="0.00000000E+00" nType="0">
                            <Node pos="l" depth="7" NCoef="0"     IVar="-1" Cut="     0.000000E+00" cType="1"     res="     3.181537E-01" rms="0.0e-00"     purity="0.00000000E+00" nType="-99">
                            </Node>
                            <Node pos="r" depth="7" NCoef="0"     IVar="-1" Cut="     0.000000E+00" cType="1"     res="    -2.240912E-01" rms="0.0e-00"     purity="0.00000000E+00" nType="-99">
                            </Node>
                        </Node>
                    </Node>
                </Node>
                <Node pos="r" depth="4" NCoef="0"     IVar="4" Cut="     7.288538E+00" cType="1"     res="     0.000000E+00" rms="0.0"     purity="0.00000000E+00" nType="0">
                    <Node pos="l" depth="5" NCoef="0"     IVar="8" Cut="     1.622801E-02" cType="1"     res="     0.000000E+00" rms="0.0"     purity="0.00000000E+00" nType="0">
                        <Node pos="l" depth="6" NCoef="0"     IVar="7" Cut="     1.996918E-02" cType="1"     res="     0.000000E+00" rms="0.0"     purity="0.00000000E+00" nType="0">
                            <Node pos="l" depth="7" NCoef="0"     IVar="-1" Cut="     0.000000E+00" cType="1"     res="     2.539162E-01" rms="0.0e-00"     purity="0.00000000E+00" nType="-99">
                            </Node>
                            <Node pos="r" depth="7" NCoef="0"     IVar="-1" Cut="     0.000000E+00" cType="1"     res="    -3.148793E-01" rms="0.0e-00"     purity="0.00000000E+00" nType="-99">
                            </Node>
                        </Node>
                        <Node pos="r" depth="6" NCoef="0"     IVar="-1" Cut="     0.000000E+00" cType="1"     res="     4.141347E-01" rms="0.0e-00"     purity="0.00000000E+00" nType="-99">
                        </Node>
                    </Node>
                    <Node pos="r" depth="5" NCoef="0"     IVar="5" Cut="     3.471746E-03" cType="1"     res="     0.000000E+00" rms="0.0"     purity="0.00000000E+00" nType="0">
                        <Node pos="l" depth="6" NCoef="0"     IVar="4" Cut="     1.734689E+01" cType="1"     res="     0.000000E+00" rms="0.0"     purity="0.00000000E+00" nType="0">
                            <Node pos="l" depth="7" NCoef="0"     IVar="-1" Cut="     0.000000E+00" cType="1"     res="    -4.500594E-02" rms="0.0e-00"     purity="0.00000000E+00" nType="-99">
                            </Node>
                            <Node pos="r" depth="7" NCoef="0"     IVar="-1" Cut="     0.000000E+00" cType="1"     res="    -3.679590E-01" rms="0.0e-00"     purity="0.00000000E+00" nType="-99">
                            </Node>
                        </Node>
                        <Node pos="r" depth="6" NCoef="0"     IVar="6" Cut="     5.036208E-03" cType="1"     res="     0.000000E+00" rms="0.0"     purity="0.00000000E+00" nType="0">
                            <Node pos="l" depth="7" NCoef="0"     IVar="-1" Cut="     0.000000E+00" cType="1"     res="    -8.532221E-02" rms="0.0e-00"     purity="0.00000000E+00" nType="-99">
                            </Node>
                            <Node pos="r" depth="7" NCoef="0"     IVar="-1" Cut="     0.000000E+00" cType="1"     res="    -3.716313E-01" rms="0.0e-00"     purity="0.00000000E+00" nType="-99">
                            </Node>
                        </Node>
                    </Node>
                </Node>
            </Node>
            <Node pos="r" depth="3" NCoef="0"     IVar="3" Cut="     2.400000E+01" cType="1"     res="     0.000000E+00" rms="0.0"     purity="0.00000000E+00" nType="0">
                <Node pos="l" depth="4" NCoef="0"     IVar="6" Cut="     4.252847E-03" cType="1"     res="     0.000000E+00" rms="0.0"     purity="0.00000000E+00" nType="0">
                    <Node pos="l" depth="5" NCoef="0"     IVar="0" Cut="     1.350000E+01" cType="1"     res="     0.000000E+00" rms="0.0"     purity="0.00000000E+00" nType="0">
                        <Node pos="l" depth="6" NCoef="0"     IVar="3" Cut="     2.000000E+01" cType="1"     res="     0.000000E+00" rms="0.0"     purity="0.00000000E+00" nType="0">
                            <Node pos="l" depth="7" NCoef="0"     IVar="-1" Cut="     0.000000E+00" cType="1"     res="     2.238713E-02" rms="0.0e-00"     purity="0.00000000E+00" nType="-99">
                            </Node>
                            <Node pos="r" depth="7" NCoef="0"     IVar="-1" Cut="     0.000000E+00" cType="1"     res="    -2.757508E-01" rms="0.0e-00"     purity="0.00000000E+00" nType="-99">
                            </Node>
                        </Node>
                        <Node pos="r" depth="6" NCoef="0"     IVar="5" Cut="     2.860807E-03" cType="1"     res="     0.000000E+00" rms="0.0"     purity="0.00000000E+00" nType="0">
                            <Node pos="l" depth="7" NCoef="0"     IVar="-1" Cut="     0.000000E+00" cType="1"     res="    -1.536325E-01" rms="0.0e-00"     purity="0.00000000E+00" nType="-99">
                            </Node>
                            <Node pos="r" depth="7" NCoef="0"     IVar="-1" Cut="     0.000000E+00" cType="1"     res="     3.094642E-01" rms="0.0e-00"     purity="0.00000000E+00" nType="-99">
                            </Node>
                        </Node>
                    </Node>
                    <Node pos="r" depth="5" NCoef="0"     IVar="4" Cut="     1.092878E+01" cType="1"     res="     0.000000E+00" rms="0.0"     purity="0.00000000E+00" nType="0">
                        <Node pos="l" depth="6" NCoef="0"     IVar="6" Cut="     5.208653E-03" cType="1"     res="     0.000000E+00" rms="0.0"     purity="0.00000000E+00" nType="0">
                            <Node pos="l" depth="7" NCoef="0"     IVar="-1" Cut="     0.000000E+00" cType="1"     res="     3.618832E-02" rms="0.0e-00"     purity="0.00000000E+00" nType="-99">
                            </Node>
                            <Node pos="r" depth="7" NCoef="0"     IVar="-1" Cut="     0.000000E+00" cType="1"     res="    -2.496092E-01" rms="0.0e-00"     purity="0.00000000E+00" nType="-99">
                            </Node>
                        </Node>
                        <Node pos="r" depth="6" NCoef="0"     IVar="6" Cut="     4.756019E-03" cType="1"     res="     0.000000E+00" rms="0.0"     purity="0.00000000E+00" nType="0">
                            <Node pos="l" depth="7" NCoef="0"     IVar="-1" Cut="     0.000000E+00" cType="1"     res="    -2.093804E-01" rms="0.0e-00"     purity="0.00000000E+00" nType="-99">
                            </Node>
                            <Node pos="r" depth="7" NCoef="0"     IVar="-1" Cut="     0.000000E+00" cType="1"     res="    -3.662922E-01" rms="0.0e-00"     purity="0.00000000E+00" nType="-99">
                            </Node>
                        </Node>
                    </Node>
                </Node>
                <Node pos="r" depth="4" NCoef="0"     IVar="2" Cut="     3.700000E+01" cType="1"     res="     0.000000E+00" rms="0.0"     purity="0.00000000E+00" nType="0">
                    <Node pos="l" depth="5" NCoef="0"     IVar="-1" Cut="     0.000000E+00" cType="1"     res="    -3.664058E-01" rms="0.0e-00"     purity="0.00000000E+00" nType="-99">
                    </Node>
                    <Node pos="r" depth="5" NCoef="0"     IVar="4" Cut="     6.718442E+00" cType="1"     res="     0.000000E+00" rms="0.0"     purity="0.00000000E+00" nType="0">
                        <Node pos="l" depth="6" NCoef="0"     IVar="-1" Cut="     0.000000E+00" cType="1"     res="     2.632774E-01" rms="0.0e-00"     purity="0.00000000E+00" nType="-99">
                        </Node>
                        <Node pos="r" depth="6" NCoef="0"     IVar="8" Cut="     1.791020E-02" cType="1"     res="     0.000000E+00" rms="0.0"     purity="0.00000000E+00" nType="0">
                            <Node pos="l" depth="7" NCoef="0"     IVar="-1" Cut="     0.000000E+00" cType="1"     res="    -3.467818E-01" rms="0.0e-00"     purity="0.00000000E+00" nType="-99">
                            </Node>
                            <Node pos="r" depth="7" NCoef="0"     IVar="-1" Cut="     0.000000E+00" cType="1"     res="    -1.079580E-01" rms="0.0e-00"     purity="0.00000000E+00" nType="-99">
                            </Node>
                        </Node>
                    </Node>
                </Node>
            </Node>
        </Node>
    </Node>
</BinaryTree>
<BinaryTree type="DecisionTree" boostWeight="0.0" itree="4">
    <Node pos="c" depth="1" NCoef="0"     IVar="3" Cut="     1.600000E+01" cType="1"     res="     0.000000E+00" rms="0.0"     purity="0.00000000E+00" nType="0">
        <Node pos="l" depth="2" NCoef="0"     IVar="6" Cut="     4.936836E-03" cType="1"     res="     0.000000E+00" rms="0.0"     purity="0.00000000E+00" nType="0">
            <Node pos="l" depth="3" NCoef="0"     IVar="5" Cut="     3.616471E-03" cType="1"     res="     0.000000E+00" rms="0.0"     purity="0.00000000E+00" nType="0">
                <Node pos="l" depth="4" NCoef="0"     IVar="4" Cut="     1.225785E+01" cType="1"     res="     0.000000E+00" rms="0.0"     purity="0.00000000E+00" nType="0">
                    <Node pos="l" depth="5" NCoef="0"     IVar="0" Cut="     1.350000E+01" cType="1"     res="     0.000000E+00" rms="0.0"     purity="0.00000000E+00" nType="0">
                        <Node pos="l" depth="6" NCoef="0"     IVar="2" Cut="     2.000000E+00" cType="1"     res="     0.000000E+00" rms="0.0"     purity="0.00000000E+00" nType="0">
                            <Node pos="l" depth="7" NCoef="0"     IVar="-1" Cut="     0.000000E+00" cType="1"     res="     2.645406E-01" rms="0.0e-00"     purity="0.00000000E+00" nType="-99">
                            </Node>
                            <Node pos="r" depth="7" NCoef="0"     IVar="-1" Cut="     0.000000E+00" cType="1"     res="     1.477076E-01" rms="0.0e-00"     purity="0.00000000E+00" nType="-99">
                            </Node>
                        </Node>
                        <Node pos="r" depth="6" NCoef="0"     IVar="5" Cut="     2.906286E-03" cType="1"     res="     0.000000E+00" rms="0.0"     purity="0.00000000E+00" nType="0">
                            <Node pos="l" depth="7" NCoef="0"     IVar="-1" Cut="     0.000000E+00" cType="1"     res="     1.968711E-01" rms="0.0e-00"     purity="0.00000000E+00" nType="-99">
                            </Node>
                            <Node pos="r" depth="7" NCoef="0"     IVar="-1" Cut="     0.000000E+00" cType="1"     res="     3.234374E-01" rms="0.0e-00"     purity="0.00000000E+00" nType="-99">
                            </Node>
                        </Node>
                    </Node>
                    <Node pos="r" depth="5" NCoef="0"     IVar="1" Cut="     4.050000E+01" cType="1"     res="     0.000000E+00" rms="0.0"     purity="0.00000000E+00" nType="0">
                        <Node pos="l" depth="6" NCoef="0"     IVar="0" Cut="     1.650000E+01" cType="1"     res="     0.000000E+00" rms="0.0"     purity="0.00000000E+00" nType="0">
                            <Node pos="l" depth="7" NCoef="0"     IVar="-1" Cut="     0.000000E+00" cType="1"     res="     2.195443E-02" rms="0.0e-00"     purity="0.00000000E+00" nType="-99">
                            </Node>
